%YAML:1.0
---
opencv_ml_svm:
   format: 3
   svmType: C_SVC
   kernel:
      type: RBF
      gamma: 3.3750000000000002e-02
   C: 2.5000000000000000e+00
   term_criteria: { iterations:10 }
   var_count: 441
   class_count: 3
   class_labels: !!opencv-matrix
      rows: 3
      cols: 1
      dt: i
      data: [ 0, 21, 45 ]
   sv_total: 43
   support_vectors:
      - [ 4.88958418e-01, 1.42858699e-01, 5.42376377e-03, 4.88958418e-01,
          4.88958418e-01, 1.67983100e-02, 1.03464359e-02, 1.34043634e-01,
          4.88958418e-01, 3.96129072e-01, 3.96129072e-01, 3.65708411e-01,
          2.45109931e-01, 3.96129072e-01, 1.26990154e-01, 3.87746021e-02,
          3.96129072e-01, 3.96129072e-01, 4.78957713e-01, 4.78957713e-01,
          1.47838965e-01, 6.89081922e-02, 1.91618294e-01, 4.78957713e-01,
          9.00499448e-02, 7.86308125e-02, 4.78957713e-01, 5.57156503e-01,
          1.50761068e-01, 1.17707111e-01, 2.96160400e-01, 3.04373413e-01,
          8.18642750e-02, 6.96844086e-02, 3.80911589e-01, 5.57156503e-01,
          5.61315596e-01, 6.73470050e-02, 2.27803469e-01, 1.78108528e-01,
          2.17039317e-01, 2.94121280e-02, 3.42155211e-02, 4.76392657e-01,
          5.61315596e-01, 4.95077759e-01, 1.62002742e-01, 2.47429699e-01,
          2.99468011e-01, 6.90833554e-02, 1.49925902e-01, 2.35269338e-01,
          4.95077759e-01, 4.95077759e-01, 2.49538034e-01, 3.54978055e-01,
          3.20505351e-01, 3.54978055e-01, 3.54978055e-01, 2.74597853e-01,
          3.54978055e-01, 3.54978055e-01, 3.54978055e-01, 4.45289761e-01,
          4.45289761e-01, 4.45289761e-01, 1.75605848e-01, 4.29249704e-01,
          3.17009181e-01, 4.12867442e-02, 1.09291464e-01, 2.67332226e-01,
          4.67077225e-01, 4.67077225e-01, 2.42760062e-01, 1.14486955e-01,
          4.67077225e-01, 4.67077225e-01, 1.71987668e-01, 1.74313691e-02,
          1.44107461e-01, 3.56740981e-01, 3.56740981e-01, 3.56740981e-01,
          3.56740981e-01, 3.56740981e-01, 3.56740981e-01, 3.56740981e-01,
          2.26756260e-01, 2.32741356e-01, 1.07196279e-01, 1.61348000e-01,
          4.02049631e-01, 4.02049631e-01, 4.02049631e-01, 1.49135068e-01,
          4.02049631e-01, 4.02049631e-01, 3.57768893e-01, 3.49833399e-01,
          1.65376678e-01, 4.01717901e-01, 4.01717901e-01, 2.83338845e-01,
          3.07578027e-01, 1.60809979e-01, 4.01717901e-01, 4.01717901e-01,
          6.44210428e-02, 2.83100251e-02, 3.11253726e-01, 4.38703537e-01,
          1.04243957e-01, 3.36269915e-01, 4.38703537e-01, 4.38703537e-01,
          4.38703537e-01, 1.91365823e-01, 2.12551802e-01, 1.42212078e-01,
          4.20220077e-01, 2.93651164e-01, 1.87047094e-01, 4.45616722e-01,
          4.45616722e-01, 4.45616722e-01, 2.52568185e-01, 4.73889828e-01,
          4.73889828e-01, 5.38711660e-02, 8.05916190e-02, 4.73889828e-01,
          4.73889828e-01, 1.53518274e-01, 1.49883255e-02, 7.21173063e-02,
          9.14011449e-02, 4.35857147e-01, 4.35857147e-01, 4.35857147e-01,
          4.35857147e-01, 4.35857147e-01, 1.73981592e-01, 4.43197489e-02,
          3.03830653e-01, 3.98379564e-01, 3.98379564e-01, 2.70248353e-01,
          3.98379564e-01, 3.00643623e-01, 1.01258956e-01, 3.08557749e-01,
          3.98379564e-01, 4.29594338e-01, 6.21604957e-02, 1.55596122e-01,
          4.34933394e-01, 4.34933394e-01, 1.40313581e-01, 1.06686980e-01,
          4.29486841e-01, 4.34933394e-01, 3.75999182e-01, 1.71148740e-02,
          1.10202082e-01, 3.75999182e-01, 3.75999182e-01, 3.75999182e-01,
          3.68176460e-01, 3.75999182e-01, 3.75999182e-01, 1.47045720e-02,
          1.92853156e-02, 3.77528757e-01, 3.91855180e-01, 3.91855180e-01,
          3.91855180e-01, 3.91855180e-01, 3.91855180e-01, 2.91919410e-01,
          1.47201180e-01, 1.07360996e-01, 3.17493647e-01, 4.33744103e-01,
          3.04174036e-01, 1.28891289e-01, 4.33744103e-01, 4.33744103e-01,
          4.33744103e-01, 6.62620440e-02, 4.45474297e-01, 4.45474297e-01,
          2.09665179e-01, 1.65452644e-01, 4.45474297e-01, 4.45474297e-01,
          3.54885101e-01, 9.63389222e-03, 2.74821967e-01, 4.00308132e-01,
          4.00308132e-01, 4.00308132e-01, 4.00308132e-01, 2.93003470e-01,
          4.00308132e-01, 1.62806943e-01, 8.29670057e-02, 3.70487154e-01,
          3.70487154e-01, 3.70487154e-01, 3.70487154e-01, 3.70487154e-01,
          3.70487154e-01, 1.61371976e-01, 9.71209854e-02, 3.70487154e-01,
          3.80684167e-01, 6.04331568e-02, 2.10169479e-02, 4.88353580e-01,
          4.88353580e-01, 1.32517114e-01, 2.63709482e-02, 3.35237384e-01,
          4.88353580e-01, 1.62868142e-01, 5.25725409e-02, 2.73246691e-02,
          4.25819546e-01, 4.25819546e-01, 2.43101314e-01, 4.25819546e-01,
          4.25819546e-01, 4.25819546e-01, 1.01234868e-01, 3.20709974e-01,
          4.20128733e-01, 1.59216791e-01, 4.20128733e-01, 4.20128733e-01,
          4.20128733e-01, 3.43353599e-01, 1.82826668e-01, 2.30903774e-01,
          3.67126077e-01, 3.76052767e-01, 1.44579753e-01, 3.76052767e-01,
          3.76052767e-01, 3.76052767e-01, 3.76052767e-01, 2.83131182e-01,
          5.59538566e-02, 2.41120264e-01, 4.47041601e-01, 4.47041601e-01,
          1.55650079e-01, 1.29072918e-02, 4.47041601e-01, 4.47041601e-01,
          3.32394987e-01, 3.97920340e-01, 3.97920340e-01, 3.97920340e-01,
          3.97920340e-01, 1.35823056e-01, 5.39490767e-02, 1.56917021e-01,
          3.97920340e-01, 3.97920340e-01, 4.04801518e-01, 3.09824735e-01,
          4.04801518e-01, 4.04801518e-01, 4.04402971e-01, 1.84751645e-01,
          1.46340683e-01, 1.59427002e-01, 4.04801518e-01, 3.85880202e-01,
          1.68213576e-01, 5.45456074e-02, 4.44743723e-01, 4.44743723e-01,
          2.12820679e-01, 7.78344423e-02, 4.13087398e-01, 4.44743723e-01,
          1.73879430e-01, 2.69408405e-01, 3.65270413e-02, 2.84865558e-01,
          4.02661085e-01, 4.02661085e-01, 4.02661085e-01, 4.02661085e-01,
          4.02661085e-01, 3.51252288e-01, 3.52811486e-01, 3.52811486e-01,
          8.50145668e-02, 3.44983697e-01, 3.52811486e-01, 3.52811486e-01,
          3.52811486e-01, 3.52811486e-01, 2.02048734e-01, 4.17731524e-01,
          4.17731524e-01, 1.33830070e-01, 2.65916795e-01, 4.17731524e-01,
          4.17731524e-01, 3.42514187e-01, 2.25979313e-01, 1.96105912e-01,
          2.16888011e-01, 5.15689909e-01, 5.15689909e-01, 1.89030245e-02,
          1.21875264e-01, 1.06381454e-01, 5.15689909e-01, 2.91574240e-01,
          1.44435182e-01, 4.38064188e-01, 4.38064188e-01, 4.38064188e-01,
          2.53392775e-02, 8.75748843e-02, 8.33672583e-02, 4.38064188e-01,
          4.38064188e-01, 3.43967170e-01, 3.43967170e-01, 3.43967170e-01,
          3.43967170e-01, 3.43967170e-01, 3.43967170e-01, 2.23731786e-01,
          3.43967170e-01, 3.43967170e-01, 2.73929298e-01, 1.56364769e-01,
          1.40833214e-01, 2.89802581e-01, 4.09292191e-01, 4.09292191e-01,
          4.09292191e-01, 3.50034714e-01, 4.09292191e-01, 3.79476011e-01,
          3.79476011e-01, 1.35544255e-01, 1.15214698e-01, 3.79476011e-01,
          3.79476011e-01, 3.79476011e-01, 3.40846688e-01, 3.58295560e-01,
          4.68402773e-01, 4.68402773e-01, 1.86994359e-01, 4.93270420e-02,
          1.95216820e-01, 4.68402773e-01, 4.68402773e-01, 8.61151889e-02,
          1.86524376e-01, 3.47025305e-01, 4.36471671e-01, 3.11874807e-01,
          1.35034099e-01, 1.90780565e-01, 4.36471671e-01, 4.36471671e-01,
          3.61034900e-01, 1.46449625e-01, 4.18327391e-01, 4.18327391e-01,
          4.18327391e-01, 4.18327391e-01, 8.49307403e-02, 2.74380445e-01,
          3.71147633e-01, 1.84208199e-01, 2.04080358e-01, 7.04727545e-02,
          2.11982846e-01, 4.26136255e-01, 4.26136255e-01, 4.26136255e-01,
          4.12404895e-01, 3.64786014e-02, 3.03871512e-01, 3.70563686e-01,
          1.15107626e-01, 7.31761605e-02, 9.52492133e-02, 4.81800884e-01,
          4.81800884e-01, 4.81800884e-01, 2.36462653e-01, 2.79679745e-01,
          3.70107114e-01, 4.44993824e-01, 1.17833793e-01, 1.29437810e-02,
          3.99386525e-01, 4.44993824e-01, 4.44993824e-01, 1.33835614e-01,
          1.09557688e-01, 4.44993824e-01, 4.20779169e-01, 4.45930541e-01,
          1.28668532e-01, 1.25098944e-01, 4.45930541e-01, 4.45930541e-01,
          4.21223640e-01, 5.33354580e-02, 9.72061306e-02, 3.16842347e-01,
          3.98900926e-01, 3.43809336e-01, 1.38879120e-01, 3.98900926e-01,
          3.98900926e-01, 3.98900926e-01, 2.66913176e-01, 2.24506736e-01,
          3.52579117e-01, 3.52579117e-01, 3.52579117e-01, 3.17230135e-01,
          3.52579117e-01, 3.52579117e-01, 3.36715937e-01, 3.52579117e-01,
          1.91291839e-01 ]
      - [ 2.99790025e-01, 4.26705122e-01, 1.29978076e-01, 8.66496861e-02,
          9.98992100e-02, 4.97881800e-01, 4.97881800e-01, 4.33751673e-01,
          6.91424608e-02, 4.26422179e-01, 4.26422179e-01, 2.85905451e-01,
          1.78262949e-01, 3.75167936e-01, 4.26422179e-01, 4.26422179e-01,
          3.57005037e-02, 1.13365792e-01, 3.74895304e-01, 3.74895304e-01,
          1.06596760e-01, 3.58031243e-01, 3.74895304e-01, 3.74895304e-01,
          1.15871802e-01, 3.74895304e-01, 3.74895304e-01, 3.58362019e-01,
          1.93496138e-01, 3.71634901e-01, 3.71634901e-01, 3.71634901e-01,
          3.71634901e-01, 4.18103151e-02, 3.71634901e-01, 3.71634901e-01,
          1.16172917e-01, 5.67894876e-02, 4.01091874e-01, 4.36430305e-01,
          3.57157707e-01, 1.09984212e-01, 3.27066004e-01, 4.36430305e-01,
          4.36430305e-01, 6.99126860e-03, 9.58673283e-03, 1.84556827e-01,
          5.05744874e-01, 1.20366119e-01, 4.71914224e-02, 4.20355201e-01,
          5.05744874e-01, 5.05744874e-01, 2.08555505e-01, 8.46290290e-02,
          1.26520306e-01, 3.28184336e-01, 4.05359268e-01, 4.05359268e-01,
          4.05359268e-01, 4.05359268e-01, 4.05359268e-01, 4.34682041e-01,
          2.22723782e-01, 8.25660229e-02, 2.67382665e-03, 1.64586641e-02,
          5.68537176e-01, 5.68537176e-01, 1.76545277e-01, 2.66525626e-01,
          1.62892371e-01, 4.38232481e-01, 4.38232481e-01, 4.38232481e-01,
          2.94674076e-02, 4.38232481e-01, 4.38232481e-01, 2.70779207e-02,
          8.51377919e-02, 1.96487710e-01, 2.13688269e-01, 3.77933919e-01,
          3.77933919e-01, 3.42572391e-01, 2.84129262e-01, 3.77933919e-01,
          3.77933919e-01, 3.77534926e-01, 3.80008548e-01, 1.25347599e-01,
          3.80008548e-01, 3.80008548e-01, 3.80008548e-01, 3.01160932e-01,
          1.52822360e-01, 3.80008548e-01, 3.80008548e-01, 2.41957203e-01,
          1.54440016e-01, 3.07378769e-01, 3.86010617e-01, 2.72481233e-01,
          3.86010617e-01, 3.86010617e-01, 3.86010617e-01, 3.86010617e-01,
          6.75153686e-03, 1.55633232e-02, 3.81982446e-01, 5.16316891e-01,
          1.92773625e-01, 1.51115144e-02, 1.17585883e-01, 5.16316891e-01,
          5.14064610e-01, 7.83851445e-02, 2.11724360e-02, 1.96599737e-01,
          4.55237836e-01, 3.43191832e-01, 5.88411950e-02, 4.55237836e-01,
          4.55237836e-01, 4.55237836e-01, 6.38725758e-02, 5.42637482e-02,
          1.52164146e-01, 6.05659597e-02, 2.09159534e-02, 5.65607369e-01,
          5.65607369e-01, 5.65607369e-01, 1.82485711e-02, 1.62062183e-01,
          5.78898787e-01, 5.78898787e-01, 2.17362225e-01, 2.08721280e-01,
          3.28924149e-01, 2.72745907e-01, 5.01250364e-02, 1.47658005e-01,
          3.77147198e-01, 2.99948245e-01, 3.77147198e-01, 1.55102700e-01,
          3.77147198e-01, 3.77147198e-01, 1.69606462e-01, 3.77147198e-01,
          3.77147198e-01, 5.03487051e-01, 0., 2.18593199e-02,
          2.26559088e-01, 5.03487051e-01, 4.06959116e-01, 1.03283554e-01,
          7.98995495e-02, 5.03487051e-01, 4.11744028e-01, 3.93938133e-03,
          3.57292295e-02, 8.61906409e-02, 4.11744028e-01, 3.73497337e-01,
          4.11744028e-01, 4.11744028e-01, 4.11744028e-01, 6.97318465e-02,
          3.07803124e-01, 4.34001446e-01, 4.34001446e-01, 4.34001446e-01,
          1.86910704e-01, 4.34001446e-01, 2.92852491e-01, 1.48095444e-01,
          9.35877413e-02, 1.30103901e-01, 4.25340086e-01, 4.25340086e-01,
          4.25340086e-01, 5.20021021e-02, 4.25340086e-01, 4.25340086e-01,
          2.50579774e-01, 4.09156196e-02, 1.70877680e-01, 3.68723094e-01,
          8.25433806e-02, 2.13709995e-02, 0., 6.40118778e-01,
          6.40118778e-01, 2.18049483e-03, 3.37971002e-01, 4.47685301e-01,
          4.47685301e-01, 2.48775810e-01, 4.47685301e-01, 7.90155679e-03,
          4.47685301e-01, 1.32864967e-01, 3.20782769e-03, 3.86931449e-01,
          3.86931449e-01, 3.86931449e-01, 1.70857683e-01, 3.86931449e-01,
          3.86931449e-01, 2.50736892e-01, 7.60092288e-02, 3.86931449e-01,
          5.12974918e-01, 8.74555781e-02, 4.95405756e-02, 2.51138151e-01,
          5.12974918e-01, 3.44559580e-01, 4.37323339e-02, 1.07888922e-01,
          5.12974918e-01, 3.88247460e-01, 1.12367101e-01, 2.27668807e-01,
          3.88247460e-01, 3.37426186e-01, 2.53229499e-01, 3.88247460e-01,
          3.88247460e-01, 3.88247460e-01, 1.14272997e-01, 3.42272788e-01,
          4.51505244e-01, 1.91426620e-01, 1.06303044e-01, 4.13416982e-01,
          4.51505244e-01, 4.51505244e-01, 1.86686963e-01, 7.95832425e-02,
          3.08845997e-01, 4.32367653e-01, 2.05697402e-01, 4.32367653e-01,
          2.67848253e-01, 4.32367653e-01, 4.32367653e-01, 1.79277718e-01,
          2.78421864e-02, 1.04536913e-01, 2.82465369e-01, 1.53603956e-01,
          7.39678219e-02, 2.55942484e-03, 5.49272537e-01, 5.49272537e-01,
          5.20146549e-01, 1.67990804e-01, 4.10246432e-01, 4.10246432e-01,
          4.10246432e-01, 5.57741039e-02, 0., 3.50798368e-01,
          4.10246432e-01, 4.10246432e-01, 3.95865053e-01, 3.95865053e-01,
          3.95865053e-01, 3.95865053e-01, 2.19838589e-01, 3.03487986e-01,
          1.85725808e-01, 1.93833917e-01, 3.95865053e-01, 4.57918704e-01,
          1.76649213e-01, 1.09775499e-01, 2.96287030e-01, 4.57918704e-01,
          4.57918704e-01, 1.52290180e-01, 4.93361354e-02, 4.57918704e-01,
          4.01810020e-01, 1.85026109e-01, 1.63890541e-01, 1.33935452e-01,
          3.59329760e-01, 4.01810020e-01, 4.01810020e-01, 3.76867861e-01,
          4.01810020e-01, 4.59478378e-01, 4.59478378e-01, 1.15370855e-01,
          1.99380368e-02, 6.00580052e-02, 4.59478378e-01, 4.59478378e-01,
          3.35409462e-01, 1.45308629e-01, 4.31795567e-01, 4.31795567e-01,
          2.94048458e-01, 6.19588532e-02, 1.89348996e-01, 4.31795567e-01,
          4.31795567e-01, 2.92905152e-01, 1.94800735e-01, 8.63384642e-03,
          2.66202050e-03, 1.93728834e-01, 4.74910736e-01, 2.80525684e-01,
          1.39315039e-01, 4.27691430e-01, 4.74910736e-01, 4.74910736e-01,
          6.26834901e-03, 8.74449164e-02, 4.35735136e-01, 5.15019357e-01,
          3.76930498e-02, 1.12111354e-03, 1.21916588e-02, 5.15019357e-01,
          5.15019357e-01, 3.64215940e-01, 3.64215940e-01, 3.64215940e-01,
          3.64215940e-01, 2.26890534e-01, 3.64215940e-01, 1.27706781e-01,
          3.64215940e-01, 3.64215940e-01, 3.70741695e-01, 3.70741695e-01,
          3.80261801e-02, 3.70741695e-01, 3.70741695e-01, 3.70741695e-01,
          3.70741695e-01, 2.52927780e-01, 3.25854570e-01, 4.10268217e-01,
          4.10268217e-01, 5.26539311e-02, 2.08309982e-02, 4.10268217e-01,
          4.10268217e-01, 4.10268217e-01, 1.43838182e-01, 3.61117333e-01,
          4.92338866e-01, 4.92338866e-01, 5.09897061e-02, 6.25454076e-03,
          1.40851125e-01, 4.92338866e-01, 4.92338866e-01, 4.93262671e-02,
          2.41100956e-02, 4.66754496e-01, 4.28113878e-01, 1.47074359e-02,
          6.88215904e-03, 8.05855989e-02, 4.66754496e-01, 4.66754496e-01,
          3.48972112e-01, 1.73025340e-01, 1.86444353e-02, 2.83990949e-02,
          8.81620720e-02, 5.09807944e-01, 9.76296440e-02, 2.37500831e-01,
          5.09807944e-01, 5.09807944e-01, 3.74608040e-01, 0.,
          1.21268537e-02, 1.65657461e-01, 5.31014085e-01, 2.34558865e-01,
          8.92966986e-02, 2.41221547e-01, 5.31014085e-01, 5.31014085e-01,
          3.99539530e-01, 3.92574444e-02, 3.48940849e-01, 3.99539530e-01,
          3.99539530e-01, 2.72401899e-01, 1.85910203e-02, 3.99539530e-01,
          3.99539530e-01, 4.83290732e-01, 6.97399080e-02, 5.25126420e-02,
          1.35626808e-01, 4.83290732e-01, 4.83290732e-01, 1.80651665e-01,
          4.73535359e-02, 4.83290732e-01, 4.95343208e-01, 4.95343208e-01,
          2.68430799e-01, 1.53232187e-01, 1.84246510e-01, 2.21221432e-01,
          2.54662991e-01, 1.25235155e-01, 4.95343208e-01, 4.16809410e-01,
          4.16809410e-01, 7.40722865e-02, 1.45462267e-02, 3.36560346e-02,
          4.16809410e-01, 4.16809410e-01, 4.16809410e-01, 3.46921861e-01,
          1.94254592e-01, 8.97152573e-02, 6.55617490e-02, 7.48913735e-02,
          1.20006166e-01, 4.80911732e-01, 4.80911732e-01, 4.80911732e-01,
          4.80911732e-01 ]
      - [ 4.14548248e-01, 4.14548248e-01, 1.67256221e-01, 2.43547291e-01,
          1.91568881e-01, 1.82556421e-01, 3.88770252e-01, 4.14548248e-01,
          4.14548248e-01, 4.12167758e-01, 4.12167758e-01, 1.54043853e-01,
          2.12043315e-01, 4.11576629e-01, 4.12167758e-01, 4.35693152e-02,
          2.76347667e-01, 4.12167758e-01, 4.73308057e-01, 4.73308057e-01,
          8.99317786e-02, 1.04677593e-02, 4.73308057e-01, 4.73308057e-01,
          1.18791312e-01, 2.45446991e-03, 2.77264923e-01, 4.07264471e-01,
          3.02172542e-01, 1.41434059e-01, 4.07264471e-01, 4.07264471e-01,
          4.07264471e-01, 9.27817971e-02, 2.16077253e-01, 4.07264471e-01,
          4.14404780e-01, 2.62724794e-02, 2.68189609e-01, 4.14404780e-01,
          4.14404780e-01, 2.07362190e-01, 1.46930769e-01, 4.14404780e-01,
          4.14404780e-01, 4.26715344e-01, 7.70231411e-02, 1.94890156e-01,
          4.26715344e-01, 4.26715344e-01, 1.99033991e-01, 4.21685725e-02,
          4.26715344e-01, 4.26715344e-01, 2.44530261e-01, 2.39319846e-01,
          4.22417879e-01, 4.22417879e-01, 3.32063735e-01, 1.58969671e-01,
          1.71540082e-01, 4.22417879e-01, 4.22417879e-01, 1.91092700e-01,
          3.86240929e-01, 3.86240929e-01, 2.48433232e-01, 3.86240929e-01,
          3.86240929e-01, 3.86240929e-01, 3.86240929e-01, 5.30430302e-02,
          1.78969175e-01, 1.32324114e-01, 4.67837453e-02, 2.23058164e-02,
          5.52733779e-01, 5.52733779e-01, 5.52733779e-01, 1.19331926e-01,
          1.07100792e-01, 3.54194254e-01, 4.51843709e-01, 4.51843709e-01,
          5.25543503e-02, 4.51843709e-01, 4.51843709e-01, 1.61471441e-01,
          4.99061532e-02, 1.48515046e-01, 3.41858625e-01, 3.41858625e-01,
          3.41858625e-01, 3.41858625e-01, 3.41858625e-01, 3.41858625e-01,
          3.41858625e-01, 3.41858625e-01, 2.48285785e-01, 1.62068412e-01,
          2.81373054e-01, 3.93147290e-01, 3.93147290e-01, 3.38221133e-01,
          5.84643558e-02, 3.93147290e-01, 3.93147290e-01, 3.93147290e-01,
          1.88861698e-01, 3.46566856e-01, 3.46566856e-01, 3.46566856e-01,
          3.46566856e-01, 3.46566856e-01, 3.46566856e-01, 3.46566856e-01,
          3.46566856e-01, 3.40894878e-01, 3.43562990e-01, 3.43562990e-01,
          3.43562990e-01, 2.38803282e-01, 3.43562990e-01, 3.39290380e-01,
          3.43562990e-01, 3.43562990e-01, 4.19661969e-01, 4.19661969e-01,
          3.28803688e-01, 4.04796526e-02, 4.70509641e-02, 4.19661969e-01,
          4.19661969e-01, 4.19661969e-01, 5.71209304e-02, 2.02761330e-02,
          1.12468265e-01, 2.68806189e-01, 5.95805384e-02, 2.66621888e-01,
          5.25777936e-01, 5.25777936e-01, 5.25777936e-01, 7.39436746e-02,
          4.39688981e-01, 4.39688981e-01, 4.39688981e-01, 6.48116395e-02,
          3.53808850e-01, 2.68686503e-01, 2.65573919e-01, 2.75003284e-01,
          2.60574073e-01, 2.73592293e-01, 3.06484461e-01, 3.43880922e-01,
          3.43880922e-01, 3.43880922e-01, 3.43880922e-01, 3.43880922e-01,
          3.43880922e-01, 3.43880922e-01, 3.70694846e-01, 1.14601582e-01,
          3.70694846e-01, 3.70694846e-01, 3.70694846e-01, 3.70694846e-01,
          1.45809054e-01, 3.70694846e-01, 3.70694846e-01, 2.91864872e-01,
          3.09451133e-01, 3.71609956e-01, 3.71609956e-01, 3.71609956e-01,
          3.71609956e-01, 3.71609956e-01, 3.10817152e-01, 1.68122053e-01,
          8.73621926e-02, 3.76871198e-01, 3.76871198e-01, 3.76871198e-01,
          2.12838382e-01, 3.76871198e-01, 3.48788798e-01, 3.33900362e-01,
          3.76871198e-01, 9.87683162e-02, 1.47791356e-01, 1.33827969e-01,
          7.54836351e-02, 5.15295267e-02, 5.57744026e-01, 5.57744026e-01,
          5.57744026e-01, 5.77470362e-02, 4.23170984e-01, 4.27994251e-01,
          4.27994251e-01, 1.67775512e-01, 1.43644333e-01, 2.98675716e-01,
          4.27994251e-01, 2.60688931e-01, 2.47316688e-01, 3.67896676e-01,
          3.67896676e-01, 3.67896676e-01, 2.86712974e-01, 3.67896676e-01,
          3.67896676e-01, 2.31504828e-01, 2.20086157e-01, 3.67896676e-01,
          2.74049193e-01, 3.97117585e-02, 1.10374883e-01, 4.49591637e-01,
          4.49591637e-01, 2.50295073e-01, 1.88330576e-01, 4.49591637e-01,
          4.49591637e-01, 2.01424524e-01, 1.66351274e-02, 3.74723710e-02,
          4.24025148e-01, 4.24025148e-01, 2.33505532e-01, 4.24025148e-01,
          4.24025148e-01, 4.24025148e-01, 2.98162490e-01, 3.85173649e-01,
          3.85173649e-01, 2.20187753e-01, 3.85173649e-01, 3.85173649e-01,
          3.85173649e-01, 2.77983695e-01, 1.99248254e-01, 3.64951015e-01,
          3.64951015e-01, 3.64951015e-01, 3.64951015e-01, 3.64951015e-01,
          3.64951015e-01, 3.64951015e-01, 2.23057240e-01, 1.19476303e-01,
          2.60290247e-03, 2.17417516e-02, 2.43851215e-01, 4.01604682e-01,
          1.39911339e-01, 2.34318331e-01, 4.82862234e-01, 4.82862234e-01,
          4.82862234e-01, 3.91133785e-01, 3.91133785e-01, 3.91133785e-01,
          2.24144369e-01, 1.45603791e-01, 8.20829198e-02, 3.91133785e-01,
          3.91133785e-01, 3.91133785e-01, 2.95188785e-01, 3.48490238e-01,
          3.48490238e-01, 3.48490238e-01, 3.10511708e-01, 2.90330052e-01,
          3.48490238e-01, 3.48490238e-01, 3.48490238e-01, 2.94779778e-01,
          2.69023240e-01, 3.18500072e-01, 3.79470289e-01, 3.79470289e-01,
          1.24536976e-01, 3.79470289e-01, 3.79470289e-01, 3.79470289e-01,
          9.03799087e-02, 4.16781530e-02, 1.95437074e-01, 3.97477061e-01,
          3.97477061e-01, 3.97477061e-01, 3.97477061e-01, 3.97477061e-01,
          3.97477061e-01, 4.46726769e-01, 4.46726769e-01, 4.46726769e-01,
          3.09491366e-01, 4.46726769e-01, 2.67789990e-01, 1.50879487e-01,
          3.62902507e-02, 7.55018294e-02, 3.79133612e-01, 3.79133612e-01,
          3.79133612e-01, 1.89637989e-01, 3.77114922e-01, 3.79133612e-01,
          3.79133612e-01, 3.02835375e-01, 8.72535780e-02, 2.19972774e-01,
          3.71898621e-01, 3.71898621e-01, 3.23320270e-01, 1.16227858e-01,
          3.71898621e-01, 3.71898621e-01, 3.71898621e-01, 3.71898621e-01,
          3.40963602e-01, 3.40963602e-01, 3.40963602e-01, 3.40963602e-01,
          3.25188637e-01, 2.77583033e-01, 3.40963602e-01, 3.40963602e-01,
          3.40963602e-01, 3.40072572e-01, 3.40072572e-01, 3.40072572e-01,
          3.40072572e-01, 3.40072572e-01, 3.40072572e-01, 3.40072572e-01,
          3.40072572e-01, 2.67221570e-01, 3.22859675e-01, 3.49376202e-01,
          1.99183241e-01, 3.49376202e-01, 3.49376202e-01, 3.49376202e-01,
          3.49376202e-01, 3.49376202e-01, 3.46719801e-01, 4.22900289e-01,
          4.22900289e-01, 2.81131826e-02, 4.39944714e-02, 2.15688601e-01,
          2.28702113e-01, 4.22900289e-01, 4.22900289e-01, 4.22900289e-01,
          4.04224634e-01, 4.04224634e-01, 4.04224634e-01, 8.56241956e-02,
          4.57688533e-02, 4.04224634e-01, 4.04224634e-01, 9.31123644e-02,
          4.01095837e-01, 3.87255877e-01, 3.52493227e-01, 2.63374776e-01,
          1.57480583e-01, 1.78208739e-01, 5.26654482e-01, 5.26654482e-01,
          1.86667696e-01, 7.08689988e-02, 2.53206879e-01, 3.04863870e-01,
          1.69662088e-01, 1.44600630e-01, 3.06489497e-01, 5.02543986e-01,
          5.02543986e-01, 3.94974470e-01, 1.82178974e-01, 3.41205329e-01,
          3.41205329e-01, 3.41205329e-01, 3.41205329e-01, 3.41205329e-01,
          3.25359911e-01, 3.41205329e-01, 3.41205329e-01, 2.75289416e-01,
          3.68918866e-01, 3.68918866e-01, 2.44386673e-01, 3.13256115e-01,
          3.68918866e-01, 3.68918866e-01, 1.47828206e-01, 3.68918866e-01,
          3.68918866e-01, 4.54977274e-01, 4.54977274e-01, 3.22125591e-02,
          6.83478117e-02, 4.54977274e-01, 2.74054646e-01, 1.49276584e-01,
          2.53652304e-01, 4.54977274e-01, 3.87551427e-01, 3.87551427e-01,
          3.32678594e-02, 6.44166470e-02, 3.87551427e-01, 3.87551427e-01,
          3.10844779e-01, 3.78506124e-01, 3.87551427e-01, 3.19576114e-01,
          2.71192998e-01, 2.64020413e-02, 1.56603362e-02, 4.26860899e-01,
          4.26860899e-01, 4.26860899e-01, 4.26860899e-01, 3.00463259e-01,
          4.19515103e-01, 3.95623803e-01, 7.81697258e-02, 6.88984990e-04,
          2.71570951e-01, 4.19515103e-01, 4.19515103e-01, 4.19515103e-01,
          2.35494301e-01 ]
      - [ 4.00471777e-01, 4.00471777e-01, 1.75945029e-01, 1.57289058e-01,
          2.46652052e-01, 2.78526992e-01, 4.00471777e-01, 4.00471777e-01,
          4.00471777e-01, 3.96189630e-01, 3.96189630e-01, 1.97020441e-01,
          2.13161409e-01, 3.49394083e-01, 3.96189630e-01, 6.98557049e-02,
          3.96189630e-01, 3.96189630e-01, 4.64638531e-01, 4.64638531e-01,
          1.51913628e-01, 9.74405650e-03, 4.64638531e-01, 4.64638531e-01,
          1.67848542e-01, 1.66932959e-02, 2.83158660e-01, 4.06202137e-01,
          2.61043519e-01, 6.91414773e-02, 4.06202137e-01, 4.06202137e-01,
          4.06202137e-01, 1.44296572e-01, 2.77840495e-01, 4.06202137e-01,
          4.27634925e-01, 2.09884867e-02, 1.52321920e-01, 4.27634925e-01,
          4.27634925e-01, 1.80778369e-01, 1.58261910e-01, 4.27634925e-01,
          4.27634925e-01, 4.26827163e-01, 3.68550494e-02, 1.54173106e-01,
          4.26827163e-01, 4.26827163e-01, 2.12077215e-01, 1.21345565e-01,
          4.26827163e-01, 4.26827163e-01, 4.08527523e-01, 9.91341770e-02,
          3.57783973e-01, 4.08527523e-01, 3.52181733e-01, 1.55301109e-01,
          2.05797389e-01, 4.08527523e-01, 4.08527523e-01, 2.35325083e-01,
          3.90611649e-01, 3.90611649e-01, 1.57099843e-01, 3.90611649e-01,
          3.90611649e-01, 3.90611649e-01, 3.90611649e-01, 2.39732713e-02,
          2.08706513e-01, 1.11182362e-01, 4.82479557e-02, 1.64592210e-02,
          5.65856636e-01, 5.65856636e-01, 5.29272676e-01, 1.13344803e-01,
          4.96665947e-02, 3.29427749e-01, 4.43521500e-01, 4.43521500e-01,
          1.64517194e-01, 4.43521500e-01, 4.43521500e-01, 2.19722718e-01,
          8.77013952e-02, 1.31019697e-01, 3.46909165e-01, 3.46909165e-01,
          3.46909165e-01, 3.46909165e-01, 3.46909165e-01, 3.26353937e-01,
          3.46909165e-01, 3.46909165e-01, 2.18186453e-01, 3.38220239e-01,
          1.78234965e-01, 3.80007952e-01, 3.80007952e-01, 3.51573020e-01,
          6.64018542e-02, 3.80007952e-01, 3.80007952e-01, 3.80007952e-01,
          3.50469321e-01, 1.74869969e-01, 3.50469321e-01, 3.50469321e-01,
          3.50469321e-01, 3.25757176e-01, 3.50469321e-01, 3.50469321e-01,
          3.50469321e-01, 3.53519410e-01, 3.53519410e-01, 3.53519410e-01,
          3.53519410e-01, 2.05047056e-01, 3.53519410e-01, 2.82120228e-01,
          3.53519410e-01, 3.53519410e-01, 3.71732414e-01, 4.48331505e-01,
          2.62875378e-01, 1.26510486e-02, 2.59434097e-02, 4.48331505e-01,
          4.48331505e-01, 4.21169370e-01, 8.37445408e-02, 2.17705835e-02,
          1.16713285e-01, 2.74832100e-01, 3.22174579e-02, 2.36590952e-01,
          5.37556887e-01, 5.37556887e-01, 5.16075253e-01, 6.10028617e-02,
          4.20322418e-01, 4.20322418e-01, 4.20322418e-01, 4.62005921e-02,
          4.20322418e-01, 2.02941626e-01, 2.06572801e-01, 4.20322418e-01,
          1.62647679e-01, 2.68950909e-01, 3.12572181e-01, 3.43621641e-01,
          3.43621641e-01, 3.43621641e-01, 3.43621641e-01, 3.43621641e-01,
          3.43621641e-01, 3.43621641e-01, 3.43253165e-01, 1.02003679e-01,
          3.71870607e-01, 3.71870607e-01, 3.71870607e-01, 3.71870607e-01,
          1.95782542e-01, 3.71870607e-01, 3.71870607e-01, 1.25095040e-01,
          2.95067698e-01, 3.82111639e-01, 3.82111639e-01, 3.43113810e-01,
          3.82111639e-01, 3.82111639e-01, 3.76942396e-01, 2.22753093e-01,
          1.71882838e-01, 3.64514291e-01, 3.64514291e-01, 3.64514291e-01,
          2.59330362e-01, 3.64514291e-01, 3.64514291e-01, 3.19903672e-01,
          3.64514291e-01, 1.06137514e-01, 1.90210223e-01, 1.00154147e-01,
          1.05256416e-01, 4.27895524e-02, 5.53997397e-01, 5.53997397e-01,
          5.53997397e-01, 5.78148104e-02, 3.98423404e-01, 4.20423716e-01,
          4.20423716e-01, 1.33736029e-01, 1.35965481e-01, 3.42980295e-01,
          4.20423716e-01, 3.11508149e-01, 2.36106053e-01, 3.75843078e-01,
          3.75843078e-01, 3.75843078e-01, 1.34447381e-01, 3.75843078e-01,
          3.75843078e-01, 2.27667525e-01, 2.80692756e-01, 3.75843078e-01,
          3.13029766e-01, 3.54483128e-02, 1.91539302e-01, 4.49039370e-01,
          4.49039370e-01, 1.53140068e-01, 1.72004879e-01, 4.49039370e-01,
          4.49039370e-01, 1.77072361e-01, 1.16002737e-02, 5.72534613e-02,
          4.08156157e-01, 4.08156157e-01, 3.58047843e-01, 4.08156157e-01,
          4.08156157e-01, 4.08156157e-01, 1.96935982e-01, 3.63883853e-01,
          3.63883853e-01, 3.63883853e-01, 3.63883853e-01, 3.63883853e-01,
          3.63883853e-01, 3.63883853e-01, 1.75215319e-01, 2.70339549e-01,
          4.05384779e-01, 4.05384779e-01, 4.05384779e-01, 2.73611724e-01,
          4.05384779e-01, 4.05384779e-01, 1.02112547e-01, 1.26065373e-01,
          8.42286856e-04, 6.08667545e-02, 2.78581113e-01, 4.51189667e-01,
          6.52779266e-02, 3.09241861e-01, 4.51189667e-01, 4.51189667e-01,
          4.51189667e-01, 3.87654275e-01, 3.87654275e-01, 3.87654275e-01,
          2.72154719e-01, 7.52867162e-02, 1.21391900e-01, 3.87654275e-01,
          3.87654275e-01, 3.87654275e-01, 2.78472930e-01, 3.53639960e-01,
          3.53639960e-01, 3.53639960e-01, 2.73147851e-01, 3.06500256e-01,
          3.53639960e-01, 3.53639960e-01, 3.53639960e-01, 2.84531027e-01,
          1.78364471e-01, 3.37190509e-01, 3.86806250e-01, 3.86806250e-01,
          1.46871164e-01, 3.86806250e-01, 3.86806250e-01, 3.86806250e-01,
          8.41995180e-02, 4.08449806e-02, 1.70695052e-01, 4.09031630e-01,
          4.09031630e-01, 3.48546684e-01, 4.09031630e-01, 4.09031630e-01,
          4.09031630e-01, 4.65416014e-01, 4.65416014e-01, 4.65416014e-01,
          1.44688070e-01, 2.85278738e-01, 4.65416014e-01, 1.57031998e-01,
          3.39908637e-02, 2.77498979e-02, 4.17486638e-01, 4.17486638e-01,
          2.82795131e-01, 9.43042263e-02, 3.94669652e-01, 4.17486638e-01,
          4.17486638e-01, 2.30007172e-01, 3.33979987e-02, 2.09623668e-02,
          3.60622048e-01, 3.60622048e-01, 3.60622048e-01, 2.92608440e-01,
          3.60622048e-01, 3.60622048e-01, 3.60622048e-01, 3.60622048e-01,
          3.42333823e-01, 3.42333823e-01, 3.42333823e-01, 3.42333823e-01,
          2.79743433e-01, 3.13011318e-01, 3.42333823e-01, 3.42333823e-01,
          3.42333823e-01, 3.43694031e-01, 3.43694031e-01, 3.43694031e-01,
          3.43694031e-01, 3.43694031e-01, 3.43694031e-01, 3.43694031e-01,
          3.43694031e-01, 2.27070943e-01, 3.25983554e-01, 3.32509905e-01,
          1.80232421e-01, 3.60791743e-01, 3.60791743e-01, 3.60791743e-01,
          3.60791743e-01, 3.60791743e-01, 3.10209632e-01, 4.36223716e-01,
          4.36223716e-01, 2.18902864e-02, 3.90952155e-02, 1.36173084e-01,
          2.60585397e-01, 3.82129073e-01, 4.36223716e-01, 4.36223716e-01,
          4.58729088e-01, 4.58729088e-01, 1.54668912e-01, 4.95402655e-03,
          1.12448134e-01, 4.58729088e-01, 4.58729088e-01, 1.36436388e-01,
          3.13818455e-01, 1.90947369e-01, 4.64573354e-01, 1.44121110e-01,
          5.49190789e-02, 2.63961017e-01, 4.64573354e-01, 4.64573354e-01,
          4.35389012e-01, 1.68486267e-01, 1.67147532e-01, 9.30610672e-02,
          2.28120178e-01, 1.70412064e-01, 3.35681826e-01, 4.75485802e-01,
          4.75485802e-01, 4.48299170e-01, 3.34283173e-01, 3.70253116e-01,
          3.70253116e-01, 3.70253116e-01, 3.70253116e-01, 3.70253116e-01,
          2.18483716e-01, 2.32429981e-01, 3.70253116e-01, 2.68361479e-01,
          3.83331805e-01, 3.21432143e-01, 1.98555321e-01, 3.25724661e-01,
          3.83331805e-01, 3.83331805e-01, 1.12315252e-01, 3.83331805e-01,
          3.83331805e-01, 4.16921347e-01, 4.16921347e-01, 1.66811850e-02,
          8.74264315e-02, 4.16921347e-01, 3.34706873e-01, 8.22666809e-02,
          4.16921347e-01, 4.16921347e-01, 3.96216899e-01, 3.96216899e-01,
          1.18136622e-01, 8.35108384e-02, 3.96216899e-01, 3.96216899e-01,
          3.00509244e-01, 3.96216899e-01, 3.16016495e-01, 2.62183398e-01,
          2.98595488e-01, 6.89598024e-02, 4.65888120e-02, 4.40938056e-01,
          4.42469090e-01, 4.42469090e-01, 4.42469090e-01, 2.21341103e-01,
          4.12229151e-01, 2.20033094e-01, 1.55024737e-01, 1.09764084e-01,
          2.48439595e-01, 4.12229151e-01, 4.12229151e-01, 4.12229151e-01,
          4.12229151e-01 ]
      - [ 6.64281607e-01, 6.64281607e-01, 3.18471730e-01, 2.21502525e-03,
          1.30678833e-04, 1.72627997e-03, 2.86743208e-03, 1.00129144e-02,
          9.63714644e-02, 6.68224454e-01, 6.68224454e-01, 4.03240956e-02,
          2.51002866e-03, 7.61740655e-02, 1.91561416e-01, 5.26352078e-02,
          1.91043690e-02, 2.30249956e-01, 4.20014948e-01, 3.08023304e-01,
          2.82745957e-02, 0., 1.34400725e-01, 4.20014948e-01,
          4.20014948e-01, 4.20014948e-01, 4.20014948e-01, 4.31806773e-01,
          3.29261512e-01, 1.36311680e-01, 2.18186945e-01, 1.73711374e-01,
          2.12327823e-01, 4.31806773e-01, 4.31806773e-01, 4.31806773e-01,
          4.81733799e-01, 2.00336158e-01, 1.46979401e-02, 5.15783727e-02,
          1.12001128e-01, 1.47797912e-01, 4.81733799e-01, 4.81733799e-01,
          4.70729977e-01, 2.80431718e-01, 1.55878067e-01, 5.19438554e-03,
          2.51572602e-03, 3.58973688e-04, 2.82909665e-02, 5.44911146e-01,
          5.44911146e-01, 5.44911146e-01, 4.56826985e-01, 4.56826985e-01,
          6.06341027e-02, 3.91807221e-02, 8.61400217e-02, 3.99930626e-02,
          3.82677794e-01, 4.56826985e-01, 4.56826985e-01, 1.59272358e-01,
          5.77623069e-01, 5.77623069e-01, 4.16456200e-02, 1.14196829e-01,
          5.27842879e-01, 8.86819810e-02, 0., 1.75996702e-02,
          2.27406010e-01, 1.87246710e-01, 8.93160328e-02, 3.28694619e-02,
          6.55353844e-01, 6.55353844e-01, 1.80865750e-01, 3.56292655e-03,
          7.69557655e-02, 3.63724455e-02, 1.66656002e-01, 3.97721827e-01,
          3.58535260e-01, 5.16728520e-01, 5.16728520e-01, 3.78317684e-01,
          4.23878133e-02, 8.62090196e-03, 1.20845675e-01, 1.44524470e-01,
          2.32535735e-01, 4.74029392e-01, 4.74029392e-01, 4.74029392e-01,
          4.74029392e-01, 7.54265338e-02, 3.45943980e-02, 3.40056606e-02,
          2.26836316e-02, 4.26653177e-02, 4.93673861e-01, 4.93673861e-01,
          4.93673861e-01, 4.93673861e-01, 1.28917903e-01, 1.01349931e-02,
          2.10756183e-01, 1.75650358e-01, 4.27373916e-01, 3.26683789e-01,
          4.36894968e-02, 5.00279307e-01, 5.00279307e-01, 3.47312272e-01,
          8.52528140e-02, 4.41304207e-01, 4.41304207e-01, 4.41304207e-01,
          1.23414025e-01, 1.26848564e-01, 2.35804781e-01, 4.41304207e-01,
          2.21570313e-01, 2.83858091e-01, 8.69663246e-03, 4.39931363e-01,
          4.57550138e-01, 2.33257428e-01, 3.40346813e-01, 4.57550138e-01,
          4.57550138e-01, 5.82395010e-02, 1.10185044e-02, 2.52517518e-02,
          2.23120436e-01, 2.31914923e-01, 3.11613511e-02, 4.49841619e-01,
          5.77948391e-01, 5.77948391e-01, 1.19254410e-01, 6.65223673e-02,
          2.36524865e-02, 5.18215239e-01, 5.18215239e-01, 1.10509291e-01,
          1.53421402e-01, 5.18215239e-01, 2.90508002e-01, 2.55295873e-01,
          5.74694574e-02, 3.98613989e-01, 3.21487904e-01, 2.30291769e-01,
          1.88271120e-01, 9.85779613e-02, 3.98613989e-01, 3.98613989e-01,
          3.98613989e-01, 3.98613989e-01, 1.39398903e-01, 2.96115838e-02,
          2.22625826e-02, 7.46012479e-02, 9.67895761e-02, 5.79155922e-01,
          5.79155922e-01, 5.34078538e-01, 4.89463173e-02, 1.49472281e-01,
          4.19383436e-01, 4.44391638e-01, 4.44391638e-01, 5.74742295e-02,
          4.44391638e-01, 4.44391638e-01, 6.15099296e-02, 1.77246854e-02,
          4.74304497e-01, 5.08112550e-01, 5.08112550e-01, 1.03556477e-01,
          2.94852704e-01, 6.26852959e-02, 3.14302415e-01, 2.13233531e-01,
          8.80792513e-02, 4.90216985e-02, 1.56662464e-01, 3.88348222e-01,
          3.88348222e-01, 3.88348222e-01, 3.88348222e-01, 3.88348222e-01,
          3.88348222e-01, 2.53550589e-01, 2.94436574e-01, 4.44941998e-01,
          4.36756223e-01, 2.97851153e-02, 4.79315594e-02, 1.43725857e-01,
          3.16772372e-01, 4.44941998e-01, 4.44941998e-01, 1.60063222e-01,
          6.08063042e-01, 6.08063042e-01, 3.03381477e-02, 2.35490827e-03,
          3.20556015e-02, 1.42022535e-01, 3.57378900e-01, 2.81040132e-01,
          4.12927866e-01, 1.18084610e-01, 1.21211238e-01, 8.48259311e-03,
          1.43966568e-03, 4.46184844e-01, 4.46184844e-01, 4.46184844e-01,
          4.46184844e-01, 3.12206745e-01, 6.44626319e-02, 0., 0., 0.,
          4.43797529e-01, 6.12669468e-01, 5.58249116e-01, 9.10612643e-02,
          4.70939457e-01, 4.70939457e-01, 4.41412956e-01, 5.10269441e-02,
          4.76862006e-02, 8.94755870e-02, 4.70939457e-01, 1.64563775e-01,
          3.08438301e-01, 4.18469906e-01, 4.39365834e-01, 4.39365834e-01,
          4.33274627e-01, 4.17434841e-01, 2.31526047e-01, 1.05122350e-01,
          2.15471219e-02, 8.55074525e-02, 9.65400692e-03, 5.66339195e-01,
          5.66339195e-01, 4.72148895e-01, 2.25795299e-01, 1.55713812e-01,
          1.94855675e-01, 9.22256410e-02, 9.02338624e-02, 1.43888801e-01,
          3.49250376e-01, 3.49250376e-01, 3.49250376e-01, 3.49250376e-01,
          3.49250376e-01, 3.49250376e-01, 3.49250376e-01, 3.49250376e-01,
          7.27714971e-02, 4.45843756e-01, 4.45843756e-01, 4.45843756e-01,
          4.45843756e-01, 4.03791666e-01, 1.34042174e-01, 6.77257702e-02,
          9.76855680e-02, 9.51247569e-03, 4.15265076e-02, 4.31673340e-02,
          1.84352696e-01, 5.62282503e-01, 5.62282503e-01, 5.62282503e-01,
          6.53015226e-02, 6.30227029e-02, 4.29774255e-01, 4.29774255e-01,
          2.49564089e-02, 1.45227790e-01, 2.68908322e-01, 4.29774255e-01,
          4.29774255e-01, 3.44392836e-01, 2.10359737e-01, 4.37573284e-01,
          3.94772321e-01, 1.08801816e-02, 8.76884311e-02, 4.37573284e-01,
          4.37573284e-01, 4.37573284e-01, 1.15865156e-01, 2.29499117e-01,
          1.66647546e-02, 4.90093201e-01, 4.90093201e-01, 1.35130167e-01,
          1.21092670e-01, 4.90093201e-01, 4.90093201e-01, 2.78662611e-02,
          1.90265886e-02, 3.66025507e-01, 4.54638958e-01, 4.54638958e-01,
          3.76889147e-02, 2.57896651e-02, 2.24136412e-01, 4.52297658e-01,
          2.22573191e-01, 3.76372546e-01, 1.01808242e-01, 1.63003013e-01,
          1.55970290e-01, 2.53266960e-01, 5.20755947e-01, 5.20755947e-01,
          5.20755947e-01, 2.15661854e-01, 9.65569690e-02, 3.31595205e-02,
          1.14200629e-01, 7.09775612e-02, 6.43333614e-01, 6.43333614e-01,
          3.56066585e-01, 8.79914314e-02, 1.03648528e-01, 3.70497778e-02,
          1.91919267e-01, 2.44274214e-01, 1.45890012e-01, 5.76396406e-01,
          5.76396406e-01, 4.54870284e-01, 3.31906639e-02, 1.65094901e-02,
          6.09174781e-02, 3.99443567e-01, 3.99443567e-01, 1.34589911e-01,
          3.99443567e-01, 3.99443567e-01, 3.99443567e-01, 3.50365609e-01,
          2.16778457e-01, 1.01834916e-01, 2.49456942e-01, 1.37751073e-01,
          3.71114500e-02, 5.84109314e-02, 4.40740049e-01, 4.83483166e-01,
          4.83483166e-01, 4.83483166e-01, 1.16868481e-01, 1.88519973e-02,
          3.47674072e-01, 5.17867446e-01, 5.17867446e-01, 1.34516016e-01,
          5.17867446e-01, 2.21465647e-01, 1.98157169e-02, 3.87450457e-02,
          4.31218386e-01, 4.23535228e-01, 1.27513826e-01, 3.02919373e-03,
          1.53162482e-03, 2.37153798e-01, 4.31218386e-01, 4.31218386e-01,
          4.31218386e-01, 4.17383969e-01, 4.17383969e-01, 1.36026412e-01,
          2.46756710e-03, 2.35991776e-02, 3.25142235e-01, 4.17383969e-01,
          4.17383969e-01, 4.17383969e-01, 4.43213075e-01, 4.43213075e-01,
          2.05753252e-01, 8.96901116e-02, 2.20960930e-01, 6.97801262e-02,
          3.25191617e-01, 4.43213075e-01, 4.43213075e-01, 4.07283872e-01,
          4.07283872e-01, 3.72295767e-01, 2.02038646e-01, 1.08558506e-01,
          1.94030643e-01, 4.07283872e-01, 3.21798265e-01, 4.07283872e-01,
          4.44009602e-01, 4.44009602e-01, 4.44009602e-01, 8.63994583e-02,
          4.92898785e-02, 7.62494579e-02, 4.44009602e-01, 4.27309602e-01,
          9.31926221e-02, 4.10595894e-01, 1.69337809e-01, 9.94672552e-02,
          3.97903426e-03, 1.33279595e-03, 1.43919159e-02, 6.07011318e-01,
          6.07011318e-01, 2.22779870e-01, 1.43448845e-01, 3.90769571e-01,
          3.90769571e-01, 3.90769571e-01, 2.85563350e-01, 1.05869211e-01,
          3.90769571e-01, 3.90769571e-01, 3.45339984e-01 ]
      - [ 6.86397076e-01, 6.86397076e-01, 1.73468798e-01, 1.65913056e-03,
          4.76559671e-03, 3.74539685e-03, 2.61521898e-03, 3.81188956e-03,
          1.43922195e-01, 6.20819032e-01, 6.20819032e-01, 6.20896108e-02,
          6.35633757e-03, 1.23450153e-01, 1.91293910e-01, 2.59601362e-02,
          3.81913707e-02, 4.06334251e-01, 4.30633605e-01, 1.90494329e-01,
          2.40323525e-02, 9.25383810e-03, 1.77540347e-01, 4.30633605e-01,
          4.30633605e-01, 4.30633605e-01, 4.30633605e-01, 4.25575256e-01,
          3.44202965e-01, 4.56463918e-02, 1.83908999e-01, 3.25960785e-01,
          1.36862293e-01, 4.15983737e-01, 4.25575256e-01, 4.25575256e-01,
          3.56623769e-01, 1.01175078e-03, 1.78855448e-03, 3.22452188e-02,
          4.69211861e-02, 1.04048230e-01, 5.33360898e-01, 5.33360898e-01,
          5.33360898e-01, 4.98169631e-01, 4.01078165e-03, 8.87782779e-03,
          0., 0., 4.73050140e-02, 4.98169631e-01, 4.98169631e-01,
          4.98169631e-01, 5.13269007e-01, 5.13269007e-01, 4.48921591e-01,
          2.34471597e-02, 1.91891112e-03, 2.73346901e-03, 2.05567144e-02,
          4.49957289e-02, 5.13269007e-01, 1.39223680e-01, 5.60163200e-01,
          5.60163200e-01, 6.49410486e-02, 1.56084403e-01, 5.60163200e-01,
          7.11196437e-02, 0., 6.08358672e-03, 1.92127556e-01,
          2.53284276e-01, 9.38521922e-02, 4.43117879e-02, 6.56036913e-01,
          6.56036913e-01, 1.16604164e-01, 6.90589892e-03, 8.48505795e-02,
          4.06712741e-02, 3.14125985e-01, 4.62675661e-01, 1.39588401e-01,
          4.64183956e-01, 4.64183956e-01, 4.64183956e-01, 1.12775445e-01,
          4.86003049e-02, 1.21332824e-01, 1.31522283e-01, 1.74096808e-01,
          4.99116242e-01, 4.99116242e-01, 4.99116242e-01, 4.06818956e-01,
          1.19606122e-01, 7.43448958e-02, 5.09618707e-02, 9.13577620e-03,
          3.54280807e-02, 2.92041153e-01, 4.06865895e-01, 5.40849447e-01,
          5.40849447e-01, 3.81282598e-01, 9.70690101e-02, 4.08856630e-01,
          3.31156224e-01, 3.83853287e-01, 1.46330103e-01, 5.97127378e-02,
          2.12778464e-01, 4.08856630e-01, 4.08856630e-01, 4.08856630e-01,
          2.41853729e-01, 5.63733757e-01, 5.63733757e-01, 1.91207781e-01,
          2.05327317e-01, 7.05503952e-03, 3.96030575e-01, 1.53457209e-01,
          2.02798173e-01, 1.84452801e-03, 3.88463020e-01, 4.69535172e-01,
          2.26088330e-01, 3.46293330e-01, 4.69535172e-01, 4.69535172e-01,
          1.08483464e-01, 1.44876633e-02, 8.33490572e-04, 4.15214986e-01,
          4.15484935e-01, 5.73067665e-02, 4.45506781e-01, 4.45506781e-01,
          4.45506781e-01, 2.07188711e-01, 9.42228809e-02, 1.18947262e-02,
          4.81466532e-01, 4.81466532e-01, 6.71493858e-02, 1.64737940e-01,
          3.89524400e-01, 4.81466532e-01, 3.08590770e-01, 1.44963443e-01,
          4.31234598e-01, 1.75539881e-01, 2.66157091e-01, 1.83391720e-01,
          1.40516937e-01, 3.11139405e-01, 4.31234598e-01, 4.31234598e-01,
          4.31234598e-01, 6.16693534e-02, 2.29410920e-02, 6.69824928e-02,
          7.78231248e-02, 1.01788126e-01, 6.44724011e-01, 6.44724011e-01,
          3.67927700e-01, 4.02599685e-02, 1.81605607e-01, 4.14799601e-01,
          4.14799601e-01, 4.14799601e-01, 3.14850688e-01, 1.98828593e-01,
          4.14799601e-01, 2.81273037e-01, 2.38458753e-01, 9.46339592e-02,
          4.57370192e-01, 4.57370192e-01, 1.85481414e-01, 4.57370192e-01,
          1.61521539e-01, 4.57370192e-01, 2.87281215e-01, 8.18710327e-02,
          3.05063296e-02, 3.09978276e-01, 4.59104985e-01, 4.59104985e-01,
          2.10997332e-02, 2.22378954e-01, 4.11901206e-01, 4.59104985e-01,
          2.15649366e-01, 2.59336710e-01, 4.70152766e-01, 4.70152766e-01,
          2.04713792e-02, 3.07404436e-02, 3.44889686e-02, 2.03274176e-01,
          4.70152766e-01, 4.70152766e-01, 2.21695721e-01, 5.06333232e-01,
          5.06333232e-01, 2.99411956e-02, 2.77091935e-02, 2.96636105e-01,
          1.55954227e-01, 3.83771896e-01, 4.14472729e-01, 2.95881987e-01,
          7.88136125e-02, 1.69299496e-03, 1.84817752e-03, 1.06374770e-01,
          4.71754313e-01, 4.71754313e-01, 4.71754313e-01, 4.71754313e-01,
          5.13665915e-01, 1.85221925e-01, 1.13296546e-02, 6.50859717e-03,
          2.22287737e-02, 3.31245571e-01, 5.13665915e-01, 5.13665915e-01,
          2.42108196e-01, 5.62127054e-01, 5.62127054e-01, 3.70084435e-01,
          4.62127738e-02, 9.12954733e-02, 7.27329403e-02, 1.66873485e-01,
          1.73788399e-01, 3.89410853e-01, 4.43366021e-01, 4.43366021e-01,
          4.43366021e-01, 9.48708272e-04, 2.55073365e-02, 1.06105231e-01,
          4.43366021e-01, 3.46680611e-01, 2.77813435e-01, 5.94763197e-02,
          1.57252461e-01, 6.20860994e-01, 6.20860994e-01, 1.26449272e-01,
          1.46996886e-01, 3.41285974e-01, 1.60823494e-01, 1.21081784e-01,
          1.09885529e-01, 2.15793967e-01, 3.81808043e-01, 3.81808043e-01,
          2.50757843e-01, 3.81808043e-01, 3.81808043e-01, 3.81808043e-01,
          3.81808043e-01, 4.93633784e-02, 1.92557320e-01, 4.78810638e-01,
          4.78810638e-01, 4.78810638e-01, 4.78810638e-01, 1.87871218e-01,
          3.35069969e-02, 4.73902673e-02, 3.39117274e-02, 1.27129480e-02,
          2.60585416e-02, 3.31300974e-01, 5.39545596e-01, 5.39545596e-01,
          5.39545596e-01, 4.76927087e-02, 8.51934180e-02, 4.21762615e-01,
          2.84331471e-01, 8.45307857e-02, 9.86840501e-02, 4.21762615e-01,
          4.21762615e-01, 4.21762615e-01, 1.40776977e-01, 4.08295810e-01,
          3.69591892e-01, 2.43892372e-01, 3.79934877e-01, 4.63436514e-01,
          4.63436514e-01, 4.63436514e-01, 8.82264376e-02, 1.45118656e-02,
          5.12268096e-02, 3.29949893e-02, 4.04509217e-01, 4.04509217e-01,
          4.04509217e-01, 4.04509217e-01, 4.04509217e-01, 4.04509217e-01,
          1.12251982e-01, 2.24412791e-02, 3.28681678e-01, 5.05121350e-01,
          5.05121350e-01, 3.48038614e-01, 8.41240510e-02, 2.28236437e-01,
          4.00902420e-01, 9.36779082e-02, 1.63800091e-01, 1.91083536e-01,
          3.12408149e-01, 1.93153799e-01, 3.47080171e-01, 1.23643175e-01,
          4.68651026e-01, 4.68651026e-01, 4.68651026e-01, 1.71012178e-01,
          0., 1.01587892e-01, 2.84957379e-01, 4.92546767e-01,
          4.92546767e-01, 4.92546767e-01, 4.18597847e-01, 2.29937416e-02,
          0., 1.52248610e-03, 3.11340630e-01, 4.58822697e-01,
          4.58822697e-01, 4.58822697e-01, 4.58822697e-01, 2.35433623e-01,
          3.11895944e-02, 2.66194483e-03, 1.47141263e-01, 2.02041939e-02,
          4.81500067e-02, 9.05668736e-02, 6.40086114e-01, 6.40086114e-01,
          3.30399543e-01, 1.61148116e-01, 8.04779753e-02, 1.98561355e-01,
          1.54436693e-01, 4.81188506e-01, 4.81188506e-01, 4.81188506e-01,
          4.81188506e-01, 4.91532199e-02, 2.94218194e-02, 4.96539399e-02,
          3.43219086e-04, 4.17523943e-02, 5.40921628e-01, 5.40921628e-01,
          5.40921628e-01, 3.27769727e-01, 8.64373744e-02, 1.27193928e-02,
          0., 5.66082336e-02, 5.24966955e-01, 5.24966955e-01,
          2.11723462e-01, 1.47801593e-01, 4.05271739e-01, 4.43712056e-01,
          8.73974934e-02, 7.02563226e-02, 3.85647975e-02, 1.48951709e-01,
          2.87005484e-01, 9.86455902e-02, 1.14008032e-01, 6.28318489e-01,
          6.28318489e-01, 2.57246852e-01, 9.59568545e-02, 1.66933835e-02,
          4.77639735e-01, 4.77639735e-01, 2.49922469e-01, 1.34794667e-01,
          4.77639735e-01, 4.77639735e-01, 4.19631340e-02, 0.,
          6.24727132e-03, 4.39128786e-01, 4.39128786e-01, 4.39128786e-01,
          3.14831659e-02, 3.53458881e-01, 4.39128786e-01, 3.13255847e-01,
          1.35850767e-02, 4.02548552e-01, 4.02548552e-01, 3.63565058e-01,
          5.93326837e-02, 6.00281209e-02, 2.15519175e-01, 4.02548552e-01,
          4.02548552e-01, 4.02548552e-01, 4.55350161e-01, 2.97889560e-01,
          1.73805401e-01, 5.15566953e-02, 9.09188911e-02, 1.90278202e-01,
          4.55350161e-01, 4.55350161e-01, 4.55350161e-01, 3.06423396e-01,
          4.57061678e-01, 4.57061678e-01, 4.57061678e-01, 4.57061678e-01,
          2.04152718e-01, 1.13308892e-01, 9.65632349e-02, 4.55653593e-02 ]
      - [ 7.01104820e-01, 7.01104820e-01, 5.16867042e-02, 8.42417032e-03,
          0., 4.23558849e-05, 2.65978510e-03, 2.73825414e-03,
          8.45477805e-02, 6.70936525e-01, 6.70936525e-01, 2.91288067e-02,
          1.91103457e-03, 2.04111971e-02, 5.08081578e-02, 2.66665518e-02,
          5.29170483e-02, 2.92624205e-01, 4.35993284e-01, 4.35993284e-01,
          1.91347823e-02, 1.76565570e-03, 3.79803888e-02, 2.08284006e-01,
          4.35993284e-01, 4.35993284e-01, 4.35993284e-01, 4.58689988e-01,
          4.58689988e-01, 1.98184162e-01, 1.26241237e-01, 8.17529783e-02,
          3.61270905e-02, 3.01047832e-01, 4.58689988e-01, 4.58689988e-01,
          1.29986107e-01, 4.65310644e-03, 1.32783893e-02, 1.84691940e-02,
          3.52074876e-02, 7.38874376e-02, 5.68678856e-01, 5.68678856e-01,
          5.68678856e-01, 4.88985270e-01, 1.89869910e-01, 1.39619764e-02,
          0., 0., 4.94393893e-02, 4.88985270e-01, 4.88985270e-01,
          4.88985270e-01, 4.11470741e-01, 4.11470741e-01, 3.53518307e-01,
          0., 2.64573023e-02, 1.53861567e-01, 4.11470741e-01,
          4.11470741e-01, 4.11470741e-01, 3.69930893e-01, 6.50882900e-01,
          5.19696951e-01, 2.99114659e-02, 1.28253520e-01, 3.81360114e-01,
          7.20061874e-03, 0., 9.40372888e-03, 3.73695731e-01,
          3.66472960e-01, 4.23138179e-02, 2.07718462e-02, 5.92809618e-01,
          5.92809618e-01, 7.23773167e-02, 8.52453243e-03, 9.87442955e-02,
          4.76991832e-02, 2.87167989e-02, 2.15380207e-01, 2.34018266e-01,
          5.35714328e-01, 5.35714328e-01, 5.35714328e-01, 1.69479996e-01,
          2.65353397e-02, 7.15814680e-02, 1.00047059e-01, 2.71666855e-01,
          4.98879761e-01, 4.98879761e-01, 4.98879761e-01, 3.60108852e-01,
          1.26839116e-01, 1.16926499e-01, 2.30927747e-02, 2.17473414e-03,
          3.12766209e-02, 3.01404744e-01, 4.29772437e-01, 5.53599536e-01,
          5.53599536e-01, 2.94229150e-01, 1.33756220e-01, 2.85378933e-01,
          4.47416455e-01, 4.24885005e-01, 1.39862344e-01, 7.06781400e-03,
          3.12308192e-01, 4.47416455e-01, 4.47416455e-01, 1.25976250e-01,
          2.43090659e-01, 4.61652040e-01, 4.61652040e-01, 9.57873557e-03,
          5.89517057e-02, 4.54916880e-02, 4.61652040e-01, 4.61652040e-01,
          2.79586494e-01, 1.41300112e-02, 4.50273484e-01, 4.50273484e-01,
          9.60002467e-02, 4.17667657e-01, 4.50273484e-01, 4.50273484e-01,
          2.44428683e-02, 7.62892887e-03, 6.27762778e-03, 2.40642354e-01,
          2.96282828e-01, 7.80531242e-02, 6.33949518e-01, 6.33949518e-01,
          1.93789035e-01, 1.47727141e-02, 1.70364454e-02, 2.49043647e-02,
          4.36986417e-01, 4.36986417e-01, 2.30819330e-01, 3.65788937e-01,
          4.36986417e-01, 4.36986417e-01, 2.00991154e-01, 6.09064028e-02,
          2.92351812e-01, 3.48087877e-01, 3.47605169e-01, 3.48087877e-01,
          3.48087877e-01, 3.48087877e-01, 3.48087877e-01, 3.48087877e-01,
          2.51460433e-01, 8.95660464e-03, 3.18442173e-02, 7.82444924e-02,
          2.51564771e-01, 2.43215367e-01, 6.46351516e-01, 6.46351516e-01,
          1.66324750e-01, 2.62221023e-02, 1.19306669e-02, 2.75950611e-01,
          4.49516922e-01, 4.49516922e-01, 1.87464401e-01, 4.12360311e-01,
          4.49516922e-01, 3.28209728e-01, 1.08088423e-02, 1.60441734e-02,
          4.81287807e-01, 4.81287807e-01, 6.54355213e-02, 3.34705383e-01,
          1.12127744e-01, 4.81287807e-01, 4.13390666e-01, 1.57320499e-02,
          5.80254477e-03, 7.61420950e-02, 4.36162680e-01, 1.34239525e-01,
          4.03156728e-01, 4.36162680e-01, 4.36162680e-01, 4.36162680e-01,
          2.19783530e-01, 1.40001938e-01, 4.23287779e-01, 4.23287779e-01,
          3.53620686e-02, 1.36463687e-01, 2.72944063e-01, 4.06336874e-01,
          4.23287779e-01, 4.23287779e-01, 1.32665604e-01, 4.80938435e-01,
          4.80938435e-01, 1.29367951e-02, 7.94912782e-03, 2.25277115e-02,
          4.80938435e-01, 4.52388018e-01, 2.79817760e-01, 4.52771872e-01,
          3.33367854e-01, 2.62200106e-02, 5.94941862e-02, 6.87904730e-02,
          2.35317990e-01, 4.52771872e-01, 4.52771872e-01, 4.52771872e-01,
          3.12802821e-01, 6.65212050e-02, 1.45561686e-02, 2.00354513e-02,
          1.61814187e-02, 1.67975217e-01, 6.49389029e-01, 6.49389029e-01,
          1.36904702e-01, 4.61624861e-01, 4.61624861e-01, 4.61624861e-01,
          1.78360119e-01, 1.37308184e-02, 1.26246840e-01, 4.61624861e-01,
          2.52958030e-01, 1.76273018e-01, 1.00693852e-01, 5.18404305e-01,
          5.18404305e-01, 1.07595911e-02, 9.26200673e-02, 2.24308744e-01,
          5.18404305e-01, 3.45337033e-01, 1.37159936e-02, 3.61730576e-01,
          3.61730576e-01, 3.61730576e-01, 1.36911333e-01, 2.48391137e-01,
          3.61730576e-01, 3.61730576e-01, 3.61730576e-01, 3.61730576e-01,
          4.41021264e-01, 4.41021264e-01, 4.21482384e-01, 1.02818899e-01,
          9.23536718e-02, 8.15722346e-02, 1.19135596e-01, 4.41021264e-01,
          4.41021264e-01, 2.10386708e-01, 3.99587929e-01, 3.99587929e-01,
          3.99587929e-01, 1.28246158e-01, 2.68141717e-01, 3.99587929e-01,
          3.61076593e-01, 3.07148367e-01, 1.14642806e-01, 7.27102011e-02,
          3.81990634e-02, 1.53608263e-01, 3.56785506e-01, 5.91657877e-01,
          5.91657877e-01, 3.32615227e-01, 1.12075604e-01, 4.71475810e-01,
          2.74307370e-01, 2.10308805e-02, 1.86674464e-02, 4.94651869e-02,
          1.66285694e-01, 4.71475810e-01, 4.71475810e-01, 4.71475810e-01,
          4.64803785e-01, 4.64803785e-01, 9.93227288e-02, 0.,
          8.85202661e-02, 4.64803785e-01, 4.64803785e-01, 2.14240476e-01,
          2.59975553e-01, 5.56784645e-02, 4.95951980e-01, 4.95951980e-01,
          4.59989272e-02, 6.25411943e-02, 4.95951980e-01, 4.95951980e-01,
          3.86829562e-02, 2.34409887e-02, 3.60342443e-01, 4.75317925e-01,
          1.01069167e-01, 2.90914699e-02, 2.53879800e-02, 5.18460013e-02,
          4.16209698e-01, 4.75317925e-01, 4.75317925e-01, 4.39504921e-01,
          4.39504921e-01, 1.22927651e-01, 5.89250103e-02, 6.22088201e-02,
          8.56373012e-02, 4.39504921e-01, 4.39504921e-01, 4.39504921e-01,
          3.70641798e-01, 3.70641798e-01, 3.70641798e-01, 3.01454812e-01,
          1.05802469e-01, 3.70641798e-01, 3.70641798e-01, 3.70641798e-01,
          2.64529198e-01, 5.95607199e-02, 4.17170435e-01, 4.44164127e-01,
          4.44164127e-01, 1.66631401e-01, 4.44164127e-01, 4.44164127e-01,
          2.66918819e-02, 1.94678865e-02, 4.53216285e-01, 4.53216285e-01,
          4.53216285e-01, 1.14362165e-01, 1.99502707e-02, 3.19909096e-01,
          4.53216285e-01, 1.86263025e-01, 1.52775809e-01, 1.40423521e-01,
          2.40448669e-01, 2.44008109e-01, 2.84022698e-03, 4.00328524e-02,
          6.38622105e-01, 6.38622105e-01, 1.82049841e-01, 7.82338604e-02,
          8.39041639e-03, 4.73743200e-01, 4.73743200e-01, 2.88528800e-01,
          2.80685395e-01, 4.73743200e-01, 3.99431974e-01, 1.57763958e-02,
          8.48487020e-03, 4.90612030e-01, 4.90612030e-01, 1.74729228e-01,
          0., 0., 0., 4.20586616e-02, 4.90612030e-01, 4.90612030e-01,
          4.43162113e-01, 4.43162113e-01, 1.16506360e-01, 4.44985315e-04,
          0., 6.01771846e-03, 4.43162113e-01, 4.43162113e-01,
          4.43162113e-01, 5.01641691e-01, 2.46248037e-01, 4.05243151e-02,
          4.21276176e-03, 1.16860436e-03, 2.02853084e-01, 5.01641691e-01,
          5.01641691e-01, 3.69605124e-01, 3.56070064e-02, 2.41085976e-01,
          5.08349657e-01, 4.84647602e-01, 4.18069959e-02, 4.07248378e-01,
          5.08349657e-01, 1.26917377e-01, 1.01764798e-02, 2.80205999e-02,
          2.39378497e-01, 4.96352524e-01, 3.92721593e-01, 1.14378676e-01,
          4.96352524e-01, 4.96352524e-01, 1.74647510e-01, 6.58497540e-03,
          8.17119256e-02, 2.33125359e-01, 1.25083551e-01, 4.18142118e-02,
          1.98060311e-02, 4.90093082e-01, 5.71782589e-01, 5.71782589e-01,
          1.46347702e-01, 1.20586462e-01, 4.32293653e-01, 4.32293653e-01,
          4.32293653e-01, 4.32293653e-01, 4.32293653e-01, 1.67829782e-01,
          8.46450403e-02, 1.06863886e-01 ]
      - [ 3.71698529e-01, 2.31357086e-02, 2.11233541e-01, 2.17722103e-01,
          3.91247720e-01, 3.91247720e-01, 3.91247720e-01, 3.91247720e-01,
          3.91247720e-01, 3.64828140e-01, 2.80648321e-01, 2.58434683e-01,
          2.28485569e-01, 3.64828140e-01, 3.64828140e-01, 3.64828140e-01,
          3.64828140e-01, 3.64828140e-01, 3.65532428e-01, 3.36550146e-01,
          3.61014098e-01, 2.51620442e-01, 3.65532428e-01, 3.65532428e-01,
          3.27482879e-01, 2.57549226e-01, 3.39145303e-01, 1.25856176e-01,
          1.75319448e-01, 3.62163574e-01, 4.54424977e-01, 5.10939360e-01,
          3.10803741e-01, 1.79699454e-02, 2.98716605e-01, 4.04281467e-01,
          7.34285861e-02, 5.60632981e-02, 3.23273242e-01, 4.82113093e-01,
          4.82113093e-01, 3.52825254e-01, 2.52820671e-01, 3.87619942e-01,
          2.80401617e-01, 2.02332795e-01, 1.13291061e-02, 3.99632186e-01,
          3.99632186e-01, 3.99632186e-01, 3.99632186e-01, 3.99632186e-01,
          2.44911760e-01, 3.10531110e-01, 2.18391508e-01, 5.36460102e-01,
          5.36460102e-01, 3.75896603e-01, 2.28240982e-01, 1.73544735e-01,
          1.38443545e-01, 1.09649904e-01, 3.41568977e-01, 4.10586029e-01,
          8.27352330e-02, 3.20455104e-01, 4.13262367e-01, 4.13262367e-01,
          4.13262367e-01, 3.11868191e-01, 1.34396702e-01, 3.00120920e-01,
          2.33664393e-01, 2.15080693e-01, 4.01548207e-01, 2.12443918e-01,
          4.52281684e-01, 4.52281684e-01, 4.52281684e-01, 2.15214998e-01,
          1.68097362e-01, 3.55435818e-01, 3.55435818e-01, 3.55435818e-01,
          3.55435818e-01, 1.82569578e-01, 3.55435818e-01, 2.80668437e-01,
          3.55435818e-01, 3.55435818e-01, 3.72591466e-01, 1.44275635e-01,
          2.29630530e-01, 3.98484528e-01, 3.79230201e-01, 3.64930689e-01,
          1.74039081e-01, 3.98484528e-01, 3.98484528e-01, 3.60051394e-01,
          2.02584431e-01, 1.67159349e-01, 3.81071389e-01, 2.67387807e-01,
          3.81071389e-01, 3.81071389e-01, 3.81071389e-01, 3.81071389e-01,
          5.50981686e-02, 4.07951064e-02, 4.89381105e-01, 5.79397023e-01,
          5.79397023e-01, 1.63439855e-01, 1.57701805e-01, 1.12905063e-01,
          1.19535305e-01, 2.40000352e-01, 3.13386530e-01, 4.40663248e-01,
          4.40663248e-01, 4.40663248e-01, 3.40724081e-01, 1.78007156e-01,
          2.15353996e-01, 2.51153022e-01, 2.70189226e-01, 2.09981166e-02,
          9.36070830e-03, 4.62151952e-02, 4.12147403e-01, 4.46956545e-01,
          4.46956545e-01, 4.27944064e-01, 4.09056097e-01, 4.06093448e-01,
          4.06093448e-01, 4.06093448e-01, 4.06093448e-01, 1.01120889e-01,
          4.06093448e-01, 2.93847471e-01, 1.41102197e-02, 2.73153394e-01,
          3.59903604e-01, 3.59903604e-01, 3.59903604e-01, 3.59903604e-01,
          1.18988872e-01, 3.59903604e-01, 3.59903604e-01, 2.74830163e-01,
          3.59903604e-01, 3.96824330e-01, 2.31954888e-01, 6.01412356e-02,
          3.18515480e-01, 3.96824330e-01, 3.96824330e-01, 3.32477063e-01,
          3.11037660e-01, 3.96824330e-01, 3.73165280e-01, 1.49216756e-01,
          1.77116126e-01, 3.73165280e-01, 3.73165280e-01, 3.73165280e-01,
          3.27295125e-01, 3.73165280e-01, 3.73165280e-01, 2.21841276e-01,
          2.30142161e-01, 3.83842409e-01, 3.83842409e-01, 2.72961348e-01,
          2.87756026e-01, 3.83842409e-01, 3.83842409e-01, 3.83842409e-01,
          5.00539362e-01, 5.00539362e-01, 5.00539362e-01, 2.46178269e-01,
          2.81788349e-01, 4.33306508e-02, 9.97247398e-02, 5.18753529e-02,
          2.98093587e-01, 4.14465040e-01, 3.26747507e-01, 2.70714723e-02,
          3.39806173e-03, 1.71594873e-01, 4.14465040e-01, 4.14465040e-01,
          4.14465040e-01, 4.14465040e-01, 3.93575966e-01, 3.93575966e-01,
          3.93575966e-01, 1.50398374e-01, 3.93575966e-01, 2.24631429e-01,
          3.93453717e-01, 1.94319949e-01, 3.32888871e-01, 3.84494871e-01,
          3.84494871e-01, 2.93812484e-01, 1.55730963e-01, 3.84494871e-01,
          3.84494871e-01, 3.84494871e-01, 2.42141843e-01, 2.96254396e-01,
          3.82357448e-01, 3.82357448e-01, 1.49389386e-01, 3.82357448e-01,
          3.82357448e-01, 2.82150179e-01, 3.82357448e-01, 3.82357448e-01,
          1.30655378e-01, 3.56880516e-01, 3.56880516e-01, 1.48658529e-01,
          2.87730902e-01, 3.56880516e-01, 3.56880516e-01, 3.56880516e-01,
          3.56880516e-01, 3.56880516e-01, 3.82743806e-01, 3.82743806e-01,
          3.82743806e-01, 6.65418506e-02, 7.30769783e-02, 3.82743806e-01,
          3.82743806e-01, 3.27797532e-01, 3.82743806e-01, 9.12999958e-02,
          6.97126687e-01, 6.97126687e-01, 2.81363800e-02, 1.75392348e-02,
          3.94973299e-03, 3.98485959e-02, 1.05447965e-02, 9.95998532e-02,
          3.94812137e-01, 3.32791090e-01, 7.64039978e-02, 2.25401893e-01,
          3.26960415e-01, 3.94812137e-01, 3.94812137e-01, 3.94812137e-01,
          3.13453019e-01, 3.46219450e-01, 3.46219450e-01, 3.46219450e-01,
          3.46219450e-01, 3.46219450e-01, 3.46219450e-01, 3.46219450e-01,
          1.93901062e-01, 3.46219450e-01, 3.34774703e-01, 3.34774703e-01,
          3.16861659e-01, 3.34774703e-01, 3.34774703e-01, 3.34774703e-01,
          3.34774703e-01, 3.34774703e-01, 3.34267884e-01, 3.75580639e-01,
          2.63895929e-01, 1.98165059e-01, 3.75580639e-01, 3.75580639e-01,
          3.75580639e-01, 3.75580639e-01, 3.75580639e-01, 2.02416301e-01,
          4.09823656e-01, 4.09823656e-01, 2.56199509e-01, 1.71327978e-01,
          4.09823656e-01, 4.09823656e-01, 4.09823656e-01, 2.45618507e-01,
          2.84395684e-02, 4.24068600e-01, 4.24068600e-01, 1.29667431e-01,
          2.38560811e-02, 3.34848225e-01, 4.24068600e-01, 4.24068600e-01,
          1.58825308e-01, 3.48849028e-01, 3.73348683e-01, 6.23928845e-01,
          6.23928845e-01, 2.90755406e-02, 1.41794011e-01, 3.64014469e-02,
          1.42277062e-01, 1.13749258e-01, 1.42650738e-01, 2.91089356e-01,
          3.48465219e-02, 1.68370649e-01, 3.83378357e-01, 3.83378357e-01,
          3.83378357e-01, 3.83378357e-01, 3.83378357e-01, 3.83378357e-01,
          3.68064135e-01, 2.73054481e-01, 3.68064135e-01, 3.68064135e-01,
          3.68064135e-01, 3.68064135e-01, 3.68064135e-01, 1.84488192e-01,
          2.73680031e-01, 3.37192029e-01, 3.37192029e-01, 3.37192029e-01,
          3.37192029e-01, 3.37192029e-01, 3.37192029e-01, 2.95030981e-01,
          3.37192029e-01, 3.37192029e-01, 3.48701030e-01, 3.48701030e-01,
          3.10945958e-01, 3.48401964e-01, 3.48701030e-01, 3.48701030e-01,
          3.48701030e-01, 3.00565898e-01, 2.83095270e-01, 3.60650599e-01,
          3.60650599e-01, 1.43161565e-01, 3.60650599e-01, 3.60650599e-01,
          3.60650599e-01, 2.77515262e-01, 3.44200253e-01, 3.60650599e-01,
          4.49195951e-01, 4.49195951e-01, 1.22915581e-01, 2.46597543e-01,
          2.71442711e-01, 4.13130522e-01, 2.23832473e-01, 3.30223590e-01,
          3.35460722e-01, 4.36012715e-01, 4.36012715e-01, 4.36012715e-01,
          7.87021518e-02, 4.36012715e-01, 3.94980252e-01, 2.07903713e-01,
          1.28064141e-01, 1.15708366e-01, 3.72390360e-01, 2.26084977e-01,
          3.72390360e-01, 1.54105246e-01, 3.72390360e-01, 3.72390360e-01,
          3.72390360e-01, 2.98946708e-01, 3.72390360e-01, 3.39839101e-01,
          3.39839101e-01, 3.39839101e-01, 2.83726126e-01, 3.39839101e-01,
          3.28130662e-01, 3.39839101e-01, 3.39839101e-01, 3.39839101e-01,
          3.57766718e-01, 3.57766718e-01, 3.57766718e-01, 3.57766718e-01,
          3.57766718e-01, 1.34134367e-01, 2.87148863e-01, 3.57766718e-01,
          3.57766718e-01, 3.52946490e-01, 3.52946490e-01, 3.52946490e-01,
          3.52946490e-01, 3.52946490e-01, 2.19645962e-01, 2.76099056e-01,
          3.52946490e-01, 3.52946490e-01, 3.53305817e-01, 3.53305817e-01,
          3.53305817e-01, 2.13178605e-01, 3.53305817e-01, 3.40341985e-01,
          3.53305817e-01, 2.93670475e-01, 3.53305817e-01, 3.55041921e-01,
          3.55041921e-01, 3.55041921e-01, 3.55041921e-01, 3.55041921e-01,
          3.55041921e-01, 1.84712201e-01, 2.89641291e-01, 3.49447310e-01,
          3.37417156e-01, 3.37417156e-01, 3.37417156e-01, 3.37417156e-01,
          3.37417156e-01, 3.37417156e-01, 3.37417156e-01, 2.92960584e-01,
          3.37417156e-01 ]
      - [ 3.67120028e-01, 3.67120028e-01, 3.67120028e-01, 2.85622962e-02,
          2.41557389e-01, 3.67120028e-01, 3.67120028e-01, 3.58474314e-01,
          3.67120028e-01, 1.97840989e-01, 2.62322158e-01, 3.41184646e-01,
          8.05940330e-02, 3.60284775e-01, 4.58537310e-01, 4.58537310e-01,
          4.58537310e-01, 6.31594211e-02, 3.97013515e-01, 2.02938333e-01,
          2.73235828e-01, 4.09117639e-01, 4.18148190e-01, 4.18148190e-01,
          3.30727726e-01, 1.44275740e-01, 2.74029136e-01, 9.31292996e-02,
          1.75635993e-01, 3.41338903e-01, 4.81043577e-01, 5.38729668e-01,
          3.68898064e-01, 1.81275345e-02, 2.44196475e-01, 3.47718030e-01,
          5.48223630e-02, 1.07356586e-01, 2.15024814e-01, 4.51296955e-01,
          4.51296955e-01, 4.51296955e-01, 3.25399309e-01, 4.42186803e-01,
          1.49348050e-01, 1.33700520e-01, 2.38319889e-01, 4.21821684e-01,
          4.21821684e-01, 4.21821684e-01, 3.45858246e-01, 4.21821684e-01,
          2.79583186e-01, 1.07680999e-01, 5.43255031e-01, 5.43255031e-01,
          5.43255031e-01, 2.00591967e-01, 2.11898297e-01, 8.31536949e-02,
          9.33460891e-02, 7.92274177e-02, 4.64090593e-02, 2.54804969e-01,
          5.26235521e-01, 5.43063134e-02, 5.24363592e-02, 1.53367028e-01,
          5.79286039e-01, 5.17477810e-01, 9.00671557e-02, 1.08066559e-01,
          1.69855356e-01, 2.06535816e-01, 3.40216398e-01, 1.33014038e-01,
          1.09180227e-01, 6.22372985e-01, 6.22372985e-01, 3.88792232e-02,
          2.66486071e-02, 3.50413591e-01, 2.75894105e-01, 3.50413591e-01,
          3.50413591e-01, 3.25436771e-01, 3.50413591e-01, 3.50413591e-01,
          3.50413591e-01, 2.78808266e-01, 3.01163316e-01, 1.81530222e-01,
          2.76695162e-01, 4.17135090e-01, 4.02468264e-01, 3.20555985e-01,
          9.42247957e-02, 4.17135090e-01, 4.17135090e-01, 3.14107805e-01,
          2.71965027e-01, 2.62305349e-01, 3.74999762e-01, 2.27368593e-01,
          3.74999762e-01, 3.74999762e-01, 3.74999762e-01, 3.74999762e-01,
          1.34113520e-01, 3.82385761e-01, 5.72725356e-01, 5.72725356e-01,
          2.86670774e-01, 1.03841901e-01, 2.62295425e-01, 1.03002675e-01,
          4.09302004e-02, 3.67120266e-01, 4.18446749e-01, 4.18446749e-01,
          4.18446749e-01, 4.18446749e-01, 3.40036809e-01, 4.26088385e-02,
          7.64356256e-02, 1.93310693e-01, 7.94704631e-02, 3.46550383e-02,
          3.80304344e-02, 1.31054267e-01, 2.50763565e-01, 6.46779239e-01,
          6.46779239e-01, 2.47972503e-01, 7.99069777e-02, 3.08379352e-01,
          4.38143939e-01, 4.38143939e-01, 3.00503075e-01, 1.81086421e-01,
          4.38143939e-01, 4.38143939e-01, 2.48846896e-02, 9.45063680e-02,
          3.52683514e-01, 3.23073864e-01, 3.52683514e-01, 3.52683514e-01,
          3.33527923e-01, 3.52683514e-01, 1.85862318e-01, 3.52683514e-01,
          3.52683514e-01, 4.57595587e-01, 1.72275022e-01, 1.25899659e-02,
          3.39721948e-01, 4.57595587e-01, 4.57595587e-01, 3.95739749e-02,
          1.05071999e-01, 4.57595587e-01, 4.27551717e-01, 1.25229396e-02,
          5.89945121e-03, 1.03466347e-01, 4.27551717e-01, 4.27551717e-01,
          4.27551717e-01, 2.66138583e-01, 4.27551717e-01, 1.79029405e-01,
          4.20936257e-01, 4.20936257e-01, 4.20936257e-01, 3.59855562e-01,
          3.03532124e-01, 4.20936257e-01, 1.55331209e-01, 9.61174667e-02,
          5.16615272e-01, 5.16615272e-01, 5.16615272e-01, 1.58095211e-01,
          1.09681621e-01, 1.22486921e-02, 2.49524862e-01, 1.47850305e-01,
          2.69944191e-01, 2.43654907e-01, 7.53844576e-03, 3.19107808e-02,
          1.02126695e-01, 1.43996373e-01, 1.68456137e-01, 6.25947654e-01,
          6.25947654e-01, 3.00240308e-01, 9.34554413e-02, 4.36155617e-01,
          4.36155617e-01, 4.36155617e-01, 4.36155617e-01, 1.13790467e-01,
          4.36104238e-01, 1.21857770e-01, 8.94314870e-02, 3.72065276e-01,
          3.72065276e-01, 3.72065276e-01, 3.21878463e-01, 3.72065276e-01,
          3.72065276e-01, 1.48338407e-01, 2.52540678e-01, 3.38722795e-01,
          4.68931019e-01, 3.05256605e-01, 2.51242649e-02, 1.16598740e-01,
          4.68931019e-01, 4.68931019e-01, 3.15928124e-02, 8.55844617e-02,
          4.68931019e-01, 3.79306734e-01, 2.29157329e-01, 8.67688507e-02,
          3.79306734e-01, 3.79306734e-01, 2.70050228e-01, 3.79306734e-01,
          3.79306734e-01, 3.79306734e-01, 1.35442421e-01, 4.25216675e-01,
          4.25216675e-01, 1.39452353e-01, 2.33437672e-01, 1.97591648e-01,
          4.25216675e-01, 4.25216675e-01, 3.75750244e-01, 3.29531655e-02,
          6.45199835e-01, 6.45199835e-01, 3.64759415e-01, 4.24221531e-03,
          2.07955739e-03, 1.59254000e-01, 3.72723117e-02, 9.17734858e-03,
          2.24808212e-02, 7.03156181e-03, 2.77182832e-02, 6.02537431e-02,
          1.13201782e-01, 2.64576197e-01, 6.34742439e-01, 6.34742439e-01,
          3.16382378e-01, 8.38999227e-02, 3.67849648e-01, 4.28463668e-01,
          3.20880353e-01, 9.00057033e-02, 8.93174633e-02, 4.28463668e-01,
          4.28463668e-01, 4.28463668e-01, 3.78210217e-01, 3.78210217e-01,
          3.78210217e-01, 3.78210217e-01, 3.78210217e-01, 3.34593624e-01,
          1.18530102e-01, 3.19840044e-01, 2.29579464e-01, 4.35857207e-01,
          4.35857207e-01, 1.92085765e-02, 1.28299609e-01, 4.35857207e-01,
          4.35857207e-01, 9.62074101e-02, 1.40367255e-01, 4.35857207e-01,
          4.13331091e-01, 2.87841856e-01, 4.21413444e-02, 1.59922138e-01,
          4.13331091e-01, 4.13331091e-01, 4.13331091e-01, 2.52079487e-01,
          3.72495115e-01, 5.57666719e-01, 5.57666719e-01, 2.76380092e-01,
          6.19806349e-02, 6.86037391e-02, 1.05191194e-01, 3.35888594e-01,
          1.35622129e-01, 3.81094426e-01, 5.44765294e-01, 5.44765294e-01,
          5.44765294e-01, 2.98214750e-03, 1.88827608e-03, 4.89715002e-02,
          1.38257191e-01, 2.26079047e-01, 1.77805096e-01, 2.18870044e-01,
          1.33380890e-01, 4.61130589e-02, 1.24371275e-01, 4.61894006e-01,
          2.42307574e-01, 4.61894006e-01, 4.61894006e-01, 4.61894006e-01,
          5.15364408e-02, 4.04467463e-01, 4.06662285e-01, 1.60163660e-02,
          1.13029957e-01, 1.58342928e-01, 6.00446537e-02, 5.57270467e-01,
          5.57270467e-01, 4.18883801e-01, 4.18883801e-01, 4.18883801e-01,
          8.42487812e-02, 4.18883801e-01, 1.27943978e-01, 5.37120029e-02,
          4.18883801e-01, 3.03553879e-01, 3.71254593e-01, 3.71254593e-01,
          2.42100865e-01, 1.63410932e-01, 3.71254593e-01, 3.71254593e-01,
          3.71254593e-01, 3.71254593e-01, 2.89818943e-01, 4.12042856e-01,
          4.12042856e-01, 3.02908897e-01, 3.37865576e-02, 4.12042856e-01,
          4.12042856e-01, 4.12042856e-01, 1.01417817e-01, 2.09299892e-01,
          5.37991226e-01, 5.37991226e-01, 3.94234538e-01, 1.49493441e-01,
          2.56559014e-01, 3.88660550e-01, 8.31202120e-02, 1.00381166e-01,
          6.42210916e-02, 3.61052722e-01, 3.61052722e-01, 3.61052722e-01,
          3.57386708e-01, 3.61052722e-01, 3.61052722e-01, 3.61052722e-01,
          1.77605897e-01, 2.34454885e-01, 4.68942642e-01, 8.34520683e-02,
          7.05742314e-02, 2.37304538e-01, 4.68942642e-01, 4.68942642e-01,
          1.77320048e-01, 1.26437426e-01, 4.68942642e-01, 1.99837521e-01,
          2.04781309e-01, 1.99411139e-01, 1.29105419e-01, 4.49690163e-01,
          4.49690163e-01, 2.19817519e-01, 4.49690163e-01, 4.49690163e-01,
          3.00739706e-01, 4.18097943e-01, 2.28491873e-01, 8.36325139e-02,
          4.18097943e-01, 3.94593358e-01, 2.38511506e-02, 4.18097943e-01,
          4.06799108e-01, 4.41621989e-01, 1.58589542e-01, 2.31123306e-02,
          3.63812774e-01, 4.41621989e-01, 4.41621989e-01, 1.83562711e-01,
          1.54042378e-01, 4.41621989e-01, 4.27587599e-01, 4.27587599e-01,
          4.27587599e-01, 4.27587599e-01, 4.27587599e-01, 1.68955922e-02,
          1.48126371e-02, 1.15037011e-02, 2.84492046e-01, 3.52953047e-01,
          3.52953047e-01, 3.52953047e-01, 3.52953047e-01, 3.52953047e-01,
          3.52953047e-01, 3.52757990e-01, 3.52953047e-01, 2.13236641e-03,
          1.35468980e-02, 3.96988600e-01, 3.96988600e-01, 3.96988600e-01,
          3.96988600e-01, 3.96988600e-01, 3.96988600e-01, 2.24163458e-01,
          1.25802984e-03 ]
      - [ 3.76385093e-01, 4.85467166e-01, 4.85467166e-01, 2.80680180e-01,
          1.34252310e-01, 4.85467166e-01, 2.19998032e-01, 1.04353658e-03,
          3.52880992e-02, 3.13469619e-01, 2.42831990e-01, 9.77191478e-02,
          3.28441679e-01, 4.31601197e-01, 5.13727367e-01, 5.13727367e-01,
          7.03401715e-02, 3.40131223e-02, 1.79164633e-01, 9.00382027e-02,
          5.83758280e-02, 4.83795941e-01, 4.83795941e-01, 3.88694674e-01,
          1.35360092e-01, 2.82792896e-01, 4.83795941e-01, 2.98065096e-01,
          9.85318422e-02, 2.36352891e-01, 5.27221382e-01, 5.27221382e-01,
          3.96161139e-01, 4.84138168e-02, 1.72846407e-01, 3.08597684e-01,
          9.50693712e-02, 3.63884300e-01, 3.97595704e-01, 3.97595704e-01,
          3.97595704e-01, 3.97595704e-01, 3.97595704e-01, 2.02958941e-01,
          1.51571989e-01, 4.66353260e-02, 4.96541649e-01, 4.96541649e-01,
          3.83226871e-01, 4.96541649e-01, 2.44269654e-01, 2.05480441e-01,
          5.93010113e-02, 3.05904914e-02, 2.67665088e-01, 2.06998065e-01,
          4.16324764e-01, 4.16324764e-01, 4.16324764e-01, 2.54663885e-01,
          4.16324764e-01, 1.30982324e-01, 3.25626940e-01, 1.65792543e-03,
          3.96903396e-01, 4.45189446e-01, 4.45189446e-01, 3.65057498e-01,
          4.45189446e-01, 3.31696659e-01, 1.20299617e-02, 1.65792543e-03,
          3.93703878e-01, 3.93703878e-01, 3.93703878e-01, 3.93703878e-01,
          1.59514889e-01, 3.93703878e-01, 3.24599415e-01, 2.77469903e-01,
          1.15125567e-01, 1.92031816e-01, 1.57835528e-01, 3.48535597e-01,
          4.18624252e-01, 3.61717522e-01, 2.48801202e-01, 3.06712151e-01,
          4.18624252e-01, 4.18624252e-01, 1.16377078e-01, 2.63418853e-01,
          4.26733315e-01, 4.26733315e-01, 4.26733315e-01, 4.25252467e-02,
          2.21154429e-02, 4.26733315e-01, 4.26733315e-01, 1.28413498e-01,
          3.00362825e-01, 3.85774583e-01, 3.85774583e-01, 3.85774583e-01,
          1.83914721e-01, 3.33921283e-01, 3.85774583e-01, 3.85774583e-01,
          9.11468491e-02, 9.00245011e-02, 5.06477058e-01, 5.06477058e-01,
          5.06477058e-01, 2.76995935e-02, 8.06817934e-02, 2.66778678e-01,
          3.61282229e-01, 7.94322863e-02, 1.58264097e-02, 4.69817340e-01,
          5.93093216e-01, 5.93093216e-01, 2.22893149e-01, 6.86720833e-02,
          4.03952859e-02, 8.50965083e-02, 5.88168995e-03, 6.56346202e-01,
          6.56346202e-01, 1.99844286e-01, 1.67984739e-02, 5.29295355e-02,
          1.77798867e-01, 2.34750450e-01, 4.57216948e-02, 1.70012504e-01,
          4.42242712e-01, 4.42242712e-01, 4.42242712e-01, 1.76845655e-01,
          1.28563508e-01, 1.36049315e-01, 3.43585908e-01, 4.42242712e-01,
          1.97499275e-01, 7.60441124e-02, 3.76713246e-01, 3.76713246e-01,
          3.76713246e-01, 3.16181213e-01, 3.76713246e-01, 3.76713246e-01,
          3.76713246e-01, 3.66250932e-01, 1.38485119e-01, 3.69634062e-01,
          4.18160647e-01, 4.18160647e-01, 1.58648163e-01, 3.46428193e-02,
          3.93613100e-01, 4.18160647e-01, 2.31723115e-01, 2.57787079e-01,
          2.72617429e-01, 2.63125569e-01, 3.82745624e-01, 3.82745624e-01,
          3.82745624e-01, 3.82745624e-01, 3.82745624e-01, 9.70206782e-02,
          3.06540709e-02, 4.61044997e-01, 4.61044997e-01, 3.80820155e-01,
          8.63524601e-02, 1.74179167e-01, 4.05629903e-01, 4.61044997e-01,
          3.96520257e-01, 1.86518058e-01, 3.96520257e-01, 3.96520257e-01,
          3.96520257e-01, 1.01511013e-02, 1.33329600e-01, 3.96520257e-01,
          3.96520257e-01, 1.32997883e-02, 6.88974082e-01, 6.88974082e-01,
          0., 2.98078395e-02, 4.09024023e-02, 8.88167620e-02,
          1.76226646e-01, 4.54853587e-02, 1.74323112e-01, 5.44421732e-01,
          5.44421732e-01, 8.29705968e-02, 4.16410089e-01, 2.91558176e-01,
          9.32337344e-02, 2.25401998e-01, 2.15866521e-01, 3.71789485e-01,
          1.31346196e-01, 3.71789485e-01, 3.71789485e-01, 3.71789485e-01,
          3.71789485e-01, 1.06966242e-01, 3.71789485e-01, 3.71789485e-01,
          4.95340168e-01, 6.77160686e-04, 8.06334894e-03, 4.95340168e-01,
          4.95340168e-01, 2.21294947e-02, 7.02515021e-02, 9.00820121e-02,
          4.95340168e-01, 2.24803761e-01, 1.39667112e-02, 1.98756270e-02,
          2.10611492e-01, 4.73477572e-01, 1.37647495e-01, 4.73477572e-01,
          4.56395686e-01, 4.73477572e-01, 1.53393447e-01, 3.49161804e-01,
          4.70091403e-01, 4.70091403e-01, 2.37316146e-01, 1.24576129e-01,
          2.57249862e-01, 3.21673006e-01, 4.07921910e-01, 5.23732543e-01,
          5.23732543e-01, 5.23732543e-01, 3.19727153e-01, 5.78072481e-02,
          1.63070741e-03, 2.95746140e-02, 8.05706158e-02, 2.42788613e-01,
          4.94730562e-01, 4.94730562e-01, 4.94730562e-01, 1.13931093e-02,
          6.05151802e-03, 1.69896092e-02, 1.46781862e-01, 2.29750812e-01,
          4.31275398e-01, 4.41456854e-01, 4.41456854e-01, 4.41456854e-01,
          4.41456854e-01, 1.81376338e-01, 5.38681895e-02, 2.48262256e-01,
          2.50481099e-01, 2.36388505e-01, 3.67541879e-01, 2.73328215e-01,
          3.31159502e-01, 3.67541879e-01, 3.67541879e-01, 1.22471891e-01,
          3.48595142e-01, 3.67541879e-01, 3.67541879e-01, 4.48546469e-01,
          5.93895614e-02, 2.13954285e-01, 4.48546469e-01, 4.48546469e-01,
          1.08899072e-01, 4.35512923e-02, 3.57329816e-01, 4.48546469e-01,
          1.93859652e-01, 8.89024138e-02, 2.91897565e-01, 3.07156712e-01,
          3.44197571e-01, 4.03874636e-01, 4.03874636e-01, 4.03874636e-01,
          4.03874636e-01, 2.79584646e-01, 5.41174769e-01, 5.41174769e-01,
          1.96865603e-01, 1.00723229e-01, 7.49866292e-02, 3.26810360e-01,
          2.64870614e-01, 3.14963430e-01, 3.93461943e-01, 6.46199405e-01,
          6.46199405e-01, 2.94865295e-02, 3.83257344e-02, 4.80120163e-03,
          2.22443249e-02, 1.70042843e-03, 2.70164795e-02, 4.39176887e-01,
          4.39176887e-01, 4.39176887e-01, 1.62312537e-01, 9.79538076e-04,
          1.40867895e-04, 6.98925331e-02, 4.39176887e-01, 4.39176887e-01,
          3.07007343e-01, 2.35991150e-01, 4.10909563e-01, 2.90123463e-01,
          1.50104575e-02, 5.65751106e-04, 2.91981727e-01, 5.03255010e-01,
          5.03255010e-01, 3.44900370e-01, 3.44900370e-01, 3.44900370e-01,
          3.44900370e-01, 2.11905465e-01, 3.44900370e-01, 3.44900370e-01,
          3.44900370e-01, 3.44900370e-01, 3.67494345e-01, 1.68505460e-01,
          1.50232255e-01, 3.67494345e-01, 3.67494345e-01, 3.67494345e-01,
          3.67494345e-01, 3.67494345e-01, 3.67494345e-01, 3.97131085e-01,
          1.93178549e-01, 8.56657475e-02, 1.14992924e-01, 3.97131085e-01,
          3.97131085e-01, 3.97131085e-01, 3.97131085e-01, 3.86764884e-01,
          6.48740947e-01, 6.48740947e-01, 3.63566667e-01, 4.20798577e-04,
          0., 0., 2.13586669e-02, 2.90964004e-02, 1.35313839e-01,
          4.79502499e-01, 4.79502499e-01, 4.79502499e-01, 9.67651606e-04,
          2.04114929e-01, 4.07766365e-02, 4.79502499e-01, 1.75725296e-01,
          3.62538844e-02, 1.99022532e-01, 4.62698847e-01, 4.62698847e-01,
          3.98005068e-01, 1.29263103e-01, 1.14988394e-01, 8.92972872e-02,
          4.62698847e-01, 3.42322230e-01, 4.28036571e-01, 3.84114198e-02,
          1.57115579e-01, 1.47288263e-01, 2.14340210e-01, 2.74311870e-01,
          3.57816547e-01, 5.07268369e-01, 5.07268369e-01, 4.50874090e-01,
          4.50874090e-01, 3.16310883e-01, 1.31769255e-01, 2.87559256e-02,
          8.49085674e-02, 2.65193284e-01, 4.35722858e-01, 4.50874090e-01,
          5.07915020e-01, 2.78875321e-01, 1.73726156e-01, 3.47957015e-02,
          1.19661912e-01, 1.26583099e-01, 3.68193835e-01, 4.51553077e-01,
          5.07915020e-01, 5.47099054e-01, 5.47099054e-01, 6.00514971e-02,
          3.81858461e-03, 3.86283845e-02, 3.05113532e-02, 2.71274120e-01,
          1.30195320e-01, 5.47099054e-01, 4.87317562e-01, 4.87317562e-01,
          4.87317562e-01, 2.74231546e-02, 1.29704000e-02, 1.24776490e-01,
          4.87317562e-01, 1.46979377e-01, 8.44208375e-02, 4.40392703e-01,
          4.40392703e-01, 4.40392703e-01, 5.86354397e-02, 6.40860200e-02,
          1.17451087e-01, 4.40392703e-01, 4.40392703e-01, 6.73239678e-02 ]
      - [ 6.82372451e-01, 6.82372451e-01, 7.34518319e-02, 1.97275472e-03,
          2.40714271e-02, 1.89411327e-01, 3.90570797e-02, 6.43931031e-02,
          1.19985417e-01, 5.65410554e-01, 5.65410554e-01, 1.02592580e-01,
          2.65221633e-02, 1.42059222e-01, 5.65410554e-01, 5.00215441e-02,
          7.59664690e-03, 3.62964123e-02, 3.71377379e-01, 3.71377379e-01,
          3.71377379e-01, 3.47385913e-01, 3.20598036e-01, 3.71377379e-01,
          9.27518830e-02, 2.73168206e-01, 3.71377379e-01, 4.27828163e-01,
          1.06244467e-01, 2.57610947e-01, 4.27828163e-01, 4.27828163e-01,
          0., 5.37601709e-02, 4.27828163e-01, 4.27828163e-01,
          4.45072740e-01, 8.36898983e-02, 3.17323327e-01, 4.45072740e-01,
          2.06037179e-01, 1.76243391e-02, 2.29641303e-01, 4.45072740e-01,
          4.45072740e-01, 2.34339088e-02, 5.72703034e-02, 1.72650561e-01,
          3.30850363e-01, 1.57581985e-01, 2.23704234e-01, 5.08901656e-01,
          5.08901656e-01, 5.08901656e-01, 3.31822634e-01, 5.21272838e-01,
          5.21272838e-01, 5.21272838e-01, 1.47873297e-01, 1.22079151e-02,
          3.27800177e-02, 5.73876128e-02, 2.07673833e-01, 4.44762945e-01,
          4.44762945e-01, 4.44762945e-01, 7.07430765e-04, 7.63384551e-02,
          4.44762945e-01, 4.44762945e-01, 2.53761355e-02, 3.86666041e-03,
          3.68219912e-01, 5.03498077e-01, 5.03498077e-01, 5.85832559e-02,
          2.93567240e-01, 5.03498077e-01, 9.32070762e-02, 1.75411273e-02,
          1.56703983e-02, 3.55504215e-01, 3.61001045e-01, 3.61001045e-01,
          3.61001045e-01, 3.61001045e-01, 1.47448197e-01, 3.61001045e-01,
          3.61001045e-01, 2.57563025e-01, 7.22704977e-02, 1.06262853e-02,
          4.76638138e-01, 4.76638138e-01, 1.90813780e-01, 2.31029876e-02,
          2.10294917e-01, 4.76638138e-01, 4.76638138e-01, 9.43940133e-02,
          2.87860762e-02, 3.95454437e-01, 3.95454437e-01, 2.19100937e-01,
          3.95454437e-01, 3.95454437e-01, 3.95454437e-01, 3.95454437e-01,
          3.84479202e-03, 3.39198411e-02, 2.44663656e-01, 5.27486026e-01,
          1.15643151e-01, 5.38408160e-02, 2.87593156e-01, 5.27486026e-01,
          5.27486026e-01, 9.75153297e-02, 4.41396952e-01, 4.41396952e-01,
          4.41396952e-01, 1.08925186e-01, 1.81293508e-04, 7.78928353e-03,
          4.41396952e-01, 4.41396952e-01, 1.27296001e-02, 5.27860880e-01,
          5.27860880e-01, 6.86786231e-03, 1.69895347e-02, 2.20214427e-01,
          5.27860880e-01, 3.31392229e-01, 1.99237163e-03, 1.89281076e-01,
          5.34702241e-01, 5.34702241e-01, 3.81930918e-01, 3.30668241e-02,
          1.51317716e-01, 4.47383612e-01, 1.25098288e-01, 3.68337147e-02,
          2.40985781e-01, 3.69412959e-01, 3.69412959e-01, 3.69412959e-01,
          3.69412959e-01, 3.16143870e-01, 1.39616042e-01, 3.69412959e-01,
          3.69412959e-01, 2.92652458e-01, 2.24633771e-03, 5.73223457e-02,
          5.18580914e-01, 5.18580914e-01, 5.65495454e-02, 5.57974949e-02,
          3.04622591e-01, 5.18580914e-01, 1.13122679e-01, 1.70009360e-02,
          5.56100011e-02, 4.04100806e-01, 4.04100806e-01, 4.04100806e-01,
          4.04100806e-01, 4.04100806e-01, 4.04100806e-01, 1.61360689e-02,
          3.92799042e-02, 4.72887903e-01, 4.72887903e-01, 1.38527215e-01,
          1.33388475e-01, 2.48996556e-01, 4.72887903e-01, 4.72887903e-01,
          3.49093117e-02, 2.31594488e-01, 4.62729752e-01, 4.62729752e-01,
          2.30110548e-02, 6.43915609e-02, 2.81730980e-01, 4.62729752e-01,
          4.62729752e-01, 9.63306427e-03, 4.58054245e-01, 4.65528339e-01,
          3.44409376e-01, 1.13090780e-02, 2.83904318e-02, 4.65528339e-01,
          4.65528339e-01, 1.25467151e-01, 3.29209208e-01, 5.09157598e-01,
          5.09157598e-01, 5.09157598e-01, 1.29047260e-02, 6.31078146e-03,
          2.66820490e-01, 1.85586840e-01, 5.44971935e-02, 3.53832304e-01,
          3.53832304e-01, 3.53832304e-01, 3.53832304e-01, 3.53832304e-01,
          1.21904589e-01, 3.31808478e-01, 3.46876860e-01, 3.53832304e-01,
          1.82819664e-01, 7.55082630e-03, 7.49660358e-02, 5.16184032e-01,
          5.16184032e-01, 2.24594902e-02, 2.66422126e-02, 3.93945307e-01,
          5.16184032e-01, 7.22484812e-02, 1.59401242e-02, 1.12309612e-01,
          4.26673114e-01, 4.39375877e-01, 1.52542397e-01, 4.39375877e-01,
          4.39375877e-01, 4.39375877e-01, 3.13233584e-02, 4.35917616e-01,
          4.35917616e-01, 4.07188416e-01, 1.37910575e-01, 1.39456615e-01,
          4.35917616e-01, 4.35917616e-01, 1.74063414e-01, 1.37462066e-02,
          4.33610529e-01, 4.33610529e-01, 3.59221160e-01, 3.82416658e-02,
          4.17868942e-01, 4.33610529e-01, 3.33144695e-01, 1.23787373e-01,
          4.74011898e-03, 1.92214977e-02, 4.96428072e-01, 4.96428072e-01,
          5.26109934e-02, 6.00246072e-04, 1.10158473e-01, 4.96428072e-01,
          4.90330756e-01, 2.80726761e-01, 4.25310612e-01, 4.25310612e-01,
          4.25310612e-01, 2.83661112e-02, 5.87037252e-03, 1.07977726e-01,
          4.25310612e-01, 4.25310612e-01, 4.17301655e-01, 2.77419835e-01,
          4.17301655e-01, 4.17301655e-01, 3.03631067e-01, 2.38248557e-02,
          1.41561270e-01, 3.30919921e-01, 4.17301655e-01, 2.41526589e-01,
          3.94092463e-02, 1.45921409e-01, 4.67961878e-01, 4.67961878e-01,
          3.11896086e-01, 2.91169286e-02, 3.98814172e-01, 4.67961878e-01,
          1.83555067e-01, 6.36718497e-02, 1.47052124e-01, 2.22870722e-01,
          4.21129614e-01, 4.21129614e-01, 4.21129614e-01, 4.21129614e-01,
          4.21129614e-01, 4.50726688e-01, 4.58856672e-01, 4.58856672e-01,
          1.36435762e-01, 1.81430817e-01, 1.71669170e-01, 4.58856672e-01,
          2.76350886e-01, 5.69375977e-02, 1.09534346e-01, 4.90614384e-01,
          4.90614384e-01, 2.71023661e-02, 6.90041706e-02, 1.15491711e-01,
          4.90614384e-01, 4.90219057e-01, 4.29597609e-02, 1.48504209e-02,
          2.18490008e-02, 6.54012620e-01, 6.54012620e-01, 5.13910204e-02,
          4.32006083e-02, 4.23486046e-02, 2.98150301e-01, 2.05215141e-01,
          2.94900965e-02, 1.63639456e-01, 4.89966214e-01, 4.89966214e-01,
          8.22168887e-02, 8.74438975e-03, 1.88456755e-02, 4.89966214e-01,
          4.89966214e-01, 3.21653306e-01, 1.73361838e-01, 3.55586857e-01,
          3.55586857e-01, 3.55586857e-01, 3.22924495e-01, 3.55586857e-01,
          3.55586857e-01, 3.55586857e-01, 2.30718523e-01, 2.83234976e-02,
          1.90658122e-01, 3.94056886e-01, 3.94056886e-01, 3.94056886e-01,
          3.94056886e-01, 3.59548956e-01, 3.94056886e-01, 3.69588494e-01,
          3.69588494e-01, 1.15289185e-02, 2.00012609e-01, 3.69588494e-01,
          3.69588494e-01, 3.69588494e-01, 3.69588494e-01, 3.69588494e-01,
          5.33251107e-01, 5.33251107e-01, 8.67335945e-02, 4.07336280e-02,
          3.53491783e-01, 5.33251107e-01, 7.72097334e-02, 3.37497927e-02,
          1.91191230e-02, 1.94296196e-01, 4.04198080e-01, 2.66430795e-01,
          4.04198080e-01, 4.04198080e-01, 4.04198080e-01, 4.04198080e-01,
          2.28310660e-01, 1.34979576e-01, 2.16097072e-01, 5.04195154e-01,
          5.04195154e-01, 5.04195154e-01, 2.39310831e-01, 2.64370412e-01,
          2.23046079e-01, 4.89362776e-02, 7.95148239e-02, 1.20589789e-02,
          7.40074590e-02, 5.57632804e-01, 5.57632804e-01, 5.57632804e-01,
          1.15589693e-01, 3.63363884e-02, 1.12737052e-01, 1.68982267e-01,
          3.84073518e-02, 1.19796675e-02, 2.09427416e-01, 6.20748758e-01,
          6.20748758e-01, 3.87982398e-01, 8.94970521e-02, 9.69323665e-02,
          9.86393020e-02, 2.20694512e-01, 4.88949241e-03, 1.07639395e-02,
          5.38948774e-01, 5.38948774e-01, 2.77729511e-01, 1.96824551e-01,
          3.21238339e-01, 3.81801784e-01, 4.92407143e-01, 3.13623160e-01,
          1.74876526e-02, 3.39876115e-01, 4.92407143e-01, 4.92407143e-01,
          2.63139382e-02, 6.39666095e-02, 2.20731765e-01, 1.64021254e-01,
          4.93074745e-01, 4.85103548e-01, 5.27880862e-02, 4.93074745e-01,
          4.93074745e-01, 2.21208744e-02, 1.06879054e-02, 9.41623747e-03,
          9.08473134e-02, 4.06315535e-01, 4.06315535e-01, 4.06315535e-01,
          4.06315535e-01, 4.06315535e-01, 1.30214646e-01, 3.59151244e-01,
          1.27596229e-01 ]
      - [ 1.25139639e-01, 5.28353393e-01, 5.28353393e-01, 1.57150939e-01,
          2.38939032e-01, 5.28353393e-01, 1.94469079e-01, 8.39909241e-02,
          1.22190662e-01, 2.93142080e-01, 3.83570760e-01, 2.09575340e-01,
          2.38833725e-01, 3.83570760e-01, 3.83570760e-01, 3.83570760e-01,
          3.83570760e-01, 2.71366477e-01, 3.85127783e-01, 2.90876210e-01,
          3.54661375e-01, 3.85127783e-01, 3.85127783e-01, 1.45792887e-01,
          1.51282176e-01, 3.85127783e-01, 3.85127783e-01, 3.99668276e-01,
          8.53064358e-02, 3.99668276e-01, 3.99668276e-01, 3.99668276e-01,
          9.11891833e-02, 1.48344979e-01, 3.99668276e-01, 3.99668276e-01,
          1.00324780e-01, 1.22462064e-01, 4.16127533e-01, 4.16127533e-01,
          1.99789479e-01, 3.19776058e-01, 3.68727565e-01, 4.16127533e-01,
          4.16127533e-01, 2.68246979e-01, 2.11093634e-01, 4.23286676e-01,
          4.23286676e-01, 2.00747669e-01, 5.63182645e-02, 4.23286676e-01,
          4.23286676e-01, 3.45104098e-01, 2.78272897e-01, 1.42249361e-01,
          3.73926908e-01, 3.73926908e-01, 3.73926908e-01, 3.11663449e-01,
          3.73926908e-01, 3.73926908e-01, 3.19926172e-01, 3.34238703e-03,
          4.54084873e-01, 4.54084873e-01, 4.54084873e-01, 3.69277000e-01,
          4.54084873e-01, 1.85180396e-01, 4.87084268e-03, 0.,
          2.63724327e-01, 4.45808560e-01, 4.45808560e-01, 4.45808560e-01,
          3.12167674e-01, 4.45808560e-01, 1.77880883e-01, 4.13541086e-02,
          1.46589344e-02, 2.72844791e-01, 3.44476789e-01, 3.44476789e-01,
          3.44476789e-01, 3.44476789e-01, 3.02430451e-01, 3.44476789e-01,
          3.44476789e-01, 3.44476789e-01, 9.61375311e-02, 1.49385706e-01,
          4.54931885e-01, 4.54931885e-01, 3.59036237e-01, 3.83382253e-02,
          7.52884522e-02, 4.54931885e-01, 4.54931885e-01, 8.33079889e-02,
          1.59639075e-01, 4.51178074e-01, 4.51178074e-01, 2.11121753e-01,
          9.19500291e-02, 3.09506983e-01, 4.51178074e-01, 4.51178074e-01,
          3.35377455e-02, 2.85200439e-02, 4.28603411e-01, 4.31528091e-01,
          4.31528091e-01, 1.11383982e-01, 2.29734585e-01, 4.31528091e-01,
          4.31528091e-01, 2.04928011e-01, 1.55073375e-01, 3.64557356e-01,
          3.64557356e-01, 3.64557356e-01, 3.64557356e-01, 3.64557356e-01,
          3.64557356e-01, 3.64557356e-01, 9.86060947e-02, 6.59974813e-01,
          6.59974813e-01, 3.08533430e-01, 5.35438582e-02, 1.20388791e-01,
          0., 0., 1.09451660e-03, 2.05400124e-01, 5.87132871e-01,
          5.87132871e-01, 4.99741524e-01, 3.76025736e-02, 8.25926848e-03,
          1.66101083e-02, 5.26719820e-03, 1.04741991e-01, 3.57666165e-01,
          2.26379201e-01, 3.57666165e-01, 3.57666165e-01, 3.57666165e-01,
          2.22942770e-01, 3.57666165e-01, 3.57666165e-01, 3.57666165e-01,
          3.47652733e-01, 9.13622826e-02, 3.04078192e-01, 4.39543694e-01,
          4.21693832e-01, 1.03460550e-01, 7.62266293e-02, 4.39543694e-01,
          4.39543694e-01, 2.46104449e-01, 1.58977553e-01, 3.13585728e-01,
          3.67910087e-01, 3.67910087e-01, 3.67910087e-01, 3.67910087e-01,
          3.67910087e-01, 3.67910087e-01, 2.95865280e-03, 1.03395386e-02,
          4.60653216e-01, 4.60653216e-01, 2.86406875e-01, 9.92347002e-02,
          2.33669102e-01, 4.60653216e-01, 4.60653216e-01, 1.31861031e-01,
          3.75956632e-02, 4.53820586e-01, 4.67609078e-01, 2.07103908e-01,
          4.91779298e-02, 2.63230324e-01, 4.67609078e-01, 4.67609078e-01,
          5.08721709e-01, 5.39044023e-01, 5.39044023e-01, 1.26575623e-02,
          0., 0., 1.31033391e-01, 3.62736166e-01, 7.59917721e-02,
          1.61262155e-01, 6.13575459e-01, 6.13575459e-01, 1.51136935e-01,
          4.34616208e-01, 0., 1.39563875e-02, 4.06361632e-02,
          3.65910903e-02, 3.51657033e-01, 3.51657033e-01, 3.51657033e-01,
          3.51657033e-01, 3.51657033e-01, 3.51657033e-01, 8.47653896e-02,
          3.51657033e-01, 3.51657033e-01, 3.97010505e-01, 1.21807563e-03,
          2.51949672e-03, 4.81933802e-01, 4.81933802e-01, 4.54596132e-02,
          6.39154203e-03, 3.72388721e-01, 4.81933802e-01, 2.33324245e-01,
          0., 4.56665596e-03, 4.11054701e-01, 4.11054701e-01,
          3.10809791e-01, 4.11054701e-01, 4.11054701e-01, 4.11054701e-01,
          2.23194007e-02, 2.61160284e-01, 4.19363499e-01, 4.19363499e-01,
          3.47769678e-01, 1.85775861e-01, 4.19363499e-01, 4.19363499e-01,
          2.61129230e-01, 1.17142744e-01, 2.97522575e-01, 4.21662152e-01,
          4.21662152e-01, 6.61645755e-02, 1.31626120e-02, 4.21662152e-01,
          4.21662152e-01, 4.21662152e-01, 1.52747586e-01, 4.40299362e-01,
          4.40299362e-01, 4.40299362e-01, 0., 1.53363356e-03,
          5.43139689e-02, 4.40299362e-01, 4.40299362e-01, 1.25270680e-01,
          4.40380156e-01, 4.40380156e-01, 4.40380156e-01, 9.90608484e-02,
          1.53346555e-02, 1.36662927e-02, 4.40380156e-01, 4.40380156e-01,
          3.64096612e-01, 3.64096612e-01, 3.64096612e-01, 3.64096612e-01,
          3.64096612e-01, 4.28574793e-02, 2.57994801e-01, 3.64096612e-01,
          3.64096612e-01, 4.20483112e-01, 2.10419893e-02, 2.08238289e-01,
          4.39188212e-01, 4.39188212e-01, 5.06012589e-02, 2.99219619e-02,
          4.39188212e-01, 4.39188212e-01, 2.01134533e-01, 8.83489028e-02,
          3.83434445e-01, 3.83434445e-01, 2.56470054e-01, 3.83434445e-01,
          3.83434445e-01, 3.83434445e-01, 3.83434445e-01, 6.58689290e-02,
          4.09811944e-01, 4.09811944e-01, 2.09047627e-02, 1.62252888e-01,
          3.53659809e-01, 4.09811944e-01, 4.09811944e-01, 4.09811944e-01,
          2.12091450e-02, 4.29355353e-01, 4.61895704e-01, 2.17251331e-02,
          2.67796487e-01, 3.13538343e-01, 4.61895704e-01, 4.61895704e-01,
          7.37102376e-03, 1.02327177e-02, 6.41450942e-01, 6.41450942e-01,
          9.52140838e-02, 0., 1.02672231e-04, 6.13071097e-05,
          2.12961465e-01, 3.40813935e-01, 2.85411756e-02, 2.48952597e-01,
          5.55769682e-01, 5.54266311e-02, 3.93704884e-03, 1.15061263e-02,
          4.24058847e-02, 5.55769682e-01, 5.55769682e-01, 3.58989120e-01,
          3.58989120e-01, 3.58989120e-01, 3.58989120e-01, 3.05368006e-01,
          3.58989120e-01, 3.24275941e-02, 3.58989120e-01, 3.58989120e-01,
          3.55293751e-01, 3.48735690e-01, 3.32864523e-01, 3.55293751e-01,
          3.31932545e-01, 3.55293751e-01, 1.50623500e-01, 3.55293751e-01,
          3.55293751e-01, 3.79382074e-01, 1.25821054e-01, 1.26974434e-01,
          3.79382074e-01, 3.79382074e-01, 3.79382074e-01, 3.79382074e-01,
          3.79382074e-01, 3.17288250e-01, 3.64440948e-01, 3.64440948e-01,
          3.64440948e-01, 1.07126407e-01, 3.64440948e-01, 3.64440948e-01,
          3.64440948e-01, 2.34866634e-01, 3.64440948e-01, 3.81950647e-01,
          2.51389027e-01, 3.81950647e-01, 5.52894548e-02, 3.81950647e-01,
          3.81950647e-01, 3.81950647e-01, 3.81950647e-01, 2.33694330e-01,
          2.07766629e-04, 7.04612792e-01, 7.04612792e-01, 1.21640891e-03,
          0., 0., 0., 1.81193498e-03, 1.76757853e-03, 2.87240534e-03,
          3.67665291e-01, 4.79658991e-01, 2.32834611e-02, 1.17418990e-02,
          2.42203981e-01, 4.79658991e-01, 4.79658991e-01, 3.32358301e-01,
          4.15031351e-02, 1.97540253e-01, 3.23347241e-01, 3.66413981e-01,
          4.07625884e-01, 4.07625884e-01, 4.07625884e-01, 4.07625884e-01,
          2.27453873e-01, 3.84283900e-01, 3.84283900e-01, 3.84283900e-01,
          2.83317804e-01, 3.84283900e-01, 3.84283900e-01, 1.54111832e-01,
          7.80816451e-02, 3.84283900e-01, 4.99592394e-01, 3.16106021e-01,
          1.70298770e-01, 8.93424302e-02, 3.19652200e-01, 1.77671954e-01,
          3.80394876e-01, 2.83678085e-01, 4.99592394e-01, 3.86178136e-01,
          3.86178136e-01, 3.86178136e-01, 1.96726955e-02, 2.46152386e-01,
          3.86178136e-01, 3.86178136e-01, 2.33823821e-01, 3.67181838e-01,
          3.68039578e-01, 3.99839342e-01, 4.54000771e-01, 5.24441153e-02,
          1.89151585e-01, 1.97306573e-01, 4.54000771e-01, 4.54000771e-01,
          6.58171847e-02 ]
      - [ 3.74913335e-01, 3.74913335e-01, 3.55586946e-01, 4.38464433e-03,
          1.62582666e-01, 3.74913335e-01, 3.74913335e-01, 3.74913335e-01,
          3.74913335e-01, 4.84527647e-01, 4.84527647e-01, 4.84527647e-01,
          2.25288838e-01, 5.86435273e-02, 0., 2.61835265e-03,
          4.34922948e-02, 4.84527647e-01, 5.54820955e-01, 5.19274995e-02,
          1.69462174e-01, 5.54820955e-01, 1.91985935e-01, 0.,
          1.31890911e-03, 5.20232059e-02, 5.54820955e-01, 4.09010619e-01,
          3.99331421e-01, 4.09010619e-01, 4.09010619e-01, 4.09010619e-01,
          0., 1.33959751e-04, 4.46532431e-05, 4.09010619e-01,
          3.49053323e-01, 3.55657995e-01, 4.85455722e-01, 4.85455722e-01,
          4.85455722e-01, 4.19379622e-02, 2.27636192e-02, 1.53945554e-02,
          1.93144381e-01, 3.29171807e-01, 6.50079325e-02, 5.87637490e-03,
          6.14354074e-01, 6.14354074e-01, 2.08076581e-01, 6.93324804e-02,
          1.02964394e-01, 2.60163367e-01, 2.33745754e-01, 1.82572544e-01,
          2.84430921e-01, 4.77630109e-01, 4.77630109e-01, 4.77630109e-01,
          1.19852848e-01, 2.07164183e-01, 2.91007757e-01, 1.93722025e-01,
          6.53936923e-01, 6.53936923e-01, 2.32137311e-02, 1.64252892e-01,
          1.84708402e-01, 4.97330055e-02, 7.68790916e-02, 1.75092310e-01,
          4.97258753e-01, 4.97258753e-01, 4.97258753e-01, 4.08205949e-02,
          6.14160188e-02, 1.34515306e-02, 1.82424951e-02, 4.05492308e-03,
          4.97258753e-01, 6.44679964e-01, 1.22541413e-01, 5.59781976e-02,
          2.52091080e-01, 2.83415824e-01, 1.66602973e-02, 5.95113076e-03,
          1.32281124e-03, 6.44679964e-01, 6.92946255e-01, 3.30800973e-02,
          1.17710736e-02, 7.99131766e-02, 1.58473849e-01, 8.26722418e-04,
          0., 0., 6.92946255e-01, 6.35237575e-01, 6.57027215e-03,
          4.80702706e-03, 1.91030353e-01, 3.87250274e-01, 2.43715011e-03,
          3.20322346e-04, 8.75463150e-03, 6.35237575e-01, 4.39674765e-01,
          1.68353450e-02, 2.59380974e-02, 3.29471052e-01, 4.39674765e-01,
          1.57727636e-02, 3.35553855e-01, 4.39674765e-01, 4.39674765e-01,
          3.07678860e-02, 4.75992262e-01, 4.75992262e-01, 4.75992262e-01,
